svm_type c_svc
kernel_type rbf
gamma 0.00909091
nr_class 3
total_sv 6
rho 0.055657 -0.00391018 -0.318145
label 2 17 15
nr_sv 2 3 1
SV
3.053779124022779 3.171573070993064 1:1 2:1 3:1 4:1 5:1 6:1 7:1 8:1 9:1 10:1 11:1 12:1 13:1 15:1 16:1 17:1 18:1 19:1 20:1 22:1 23:1 26:1 27:1 28:1 29:1 30:1 31:1 34:1 36:1 37:1 38:1 39:1 40:1 41:1 42:1 43:1 45:1 47:1 48:1 49:1 51:1 52:1 53:1 54:1 56:1 58:1 59:1 60:1 62:1 63:1 64:1 65:1 67:1 70:1 74:1 75:1 78:1 79:1 83:1 88:1 89:1 90:1 91:1 93:1 94:1 95:1 98:1 99:1 
0.5300642409721994 0.5000172136332379 1:1 2:1 3:1 4:1 5:1 6:1 7:1 8:1 9:1 10:1 11:1 12:1 13:1 15:1 16:1 17:1 18:1 19:1 20:1 22:1 23:1 26:1 27:1 28:1 29:1 30:1 31:1 34:1 36:1 37:1 38:1 39:1 40:1 41:1 42:1 43:1 45:1 47:1 48:1 49:1 51:1 52:1 53:1 54:1 58:1 59:1 60:1 62:1 63:1 64:1 65:1 67:1 70:1 74:1 75:1 78:1 79:1 83:1 88:1 89:1 90:1 91:1 93:1 94:1 95:1 98:1 99:1 
-1.350044181577449 3.320732046781287 1:1 2:1 3:1 4:1 5:1 6:1 7:1 8:1 9:1 10:1 11:1 12:1 23:1 34:1 35:1 36:1 37:1 38:1 40:1 41:1 42:1 43:1 44:1 45:1 46:1 47:1 48:1 49:1 51:1 52:1 53:1 54:1 55:1 56:1 57:1 58:1 59:1 60:1 62:1 63:1 64:1 65:1 66:1 67:1 68:1 69:1 70:1 71:1 73:1 74:1 75:1 76:1 77:1 78:1 89:1 
-0.4936778083878621 0.3596594792147757 1:1 2:1 3:1 4:1 5:1 6:1 7:1 8:1 9:1 10:1 11:1 12:1 23:1 34:1 35:1 36:1 38:1 40:1 41:1 42:1 43:1 44:1 45:1 46:1 47:1 48:1 49:1 52:1 53:1 54:1 55:1 56:1 57:1 58:1 59:1 60:1 62:1 63:1 64:1 65:1 66:1 67:1 68:1 69:1 70:1 71:1 73:1 74:1 75:1 76:1 77:1 78:1 89:1 100:1 101:1 102:1 103:1 105:1 106:1 107:1 108:1 109:1 110:1 
-1.740121375029668 0.3196084740039371 1:1 2:1 3:1 4:1 5:1 6:1 7:1 8:1 9:1 10:1 11:1 12:1 23:1 34:1 35:1 36:1 37:1 38:1 41:1 42:1 43:1 45:1 46:1 47:1 48:1 49:1 51:1 52:1 53:1 54:1 55:1 56:1 57:1 58:1 59:1 60:1 62:1 63:1 64:1 65:1 66:1 67:1 68:1 69:1 70:1 71:1 73:1 74:1 75:1 76:1 77:1 78:1 89:1 
-3.671590284626301 -4 1:1 2:1 3:1 4:1 5:1 6:1 7:1 8:1 9:1 10:1 11:1 12:1 23:1 34:1 36:1 37:1 38:1 40:1 41:1 42:1 43:1 44:1 45:1 47:1 48:1 49:1 51:1 52:1 53:1 54:1 55:1 56:1 58:1 59:1 60:1 62:1 63:1 64:1 65:1 66:1 67:1 69:1 70:1 71:1 73:1 74:1 75:1 76:1 77:1 78:1 80:1 81:1 82:1 83:1 84:1 85:1 86:1 87:1 88:1 89:1 91:1 92:1 93:1 94:1 95:1 96:1 97:1 98:1 99:1 
