svm_type c_svc
kernel_type rbf
gamma 0.00909091
nr_class 21
total_sv 138
rho 0.0740898 0.00399618 0.0484533 0.043366 0.0432563 0.0165596 0.0684913 0.106327 0.0351027 0.0895675 0.00178109 0.0485192 0.0159871 0.00815361 0.0367905 0.0311589 0.0764609 0.0599308 0.0601639 0.0671499 -0.067609 0.00340521 -0.0128819 -0.024273 -0.0664319 -0.0110514 0.10001 -0.0486598 0.00160912 -0.0538 -0.00968015 -0.0363097 -0.0439064 -0.0077213 -0.0348323 -0.00373051 0.0275102 -0.0123252 0.0539034 0.0519188 0.082388 0.0508195 0.0132136 0.0746772 0.155947 0.0464974 0.0625896 -0.00797748 0.0248681 -0.0101833 0.00296733 0.0373362 0.0310353 0.0630654 0.098699 0.0430493 0.0643789 -0.00298744 -0.00336376 -0.0351682 -0.00918137 0.0701128 -0.0152543 -0.0021962 -0.0560023 -0.0140654 -0.0333974 -0.0600651 -0.0120607 -0.0197291 -0.0021311 -0.00267596 -0.0174333 0.00281542 0.00965297 -0.0458201 0.007559 0.152652 -0.0111339 0.020575 -0.0317527 -0.00444445 -0.0291361 -0.0468611 0.00445009 -0.0176372 0.014146 -0.00423224 -0.00995844 0.0190225 -0.0370694 -0.0089552 0.0816894 -0.0193538 0.0148916 -0.0413128 -0.0203038 -0.0441743 -0.0306032 -0.0178146 -0.0189451 0.00593881 0.04576 -0.00824301 0.0606132 0.0237377 0.123387 0.0191125 0.0977884 -0.0146758 0.0339691 0.010212 0.0140547 0.0269084 0.0311153 0.0488779 0.0647276 0.0393396 0.0453017 0.176403 -0.00417777 0.0265618 -0.0362911 -0.00624934 -0.0365812 -0.026755 0.0051712 -0.0166058 0.0356493 0.0401164 0.00175156 0.0208914 -0.138127 -0.170463 -0.134127 -0.0823062 -0.115252 -0.176485 -0.0948114 -0.110175 -0.10758 -0.0837087 -0.0931291 -0.0717838 0.0467058 -0.0332508 0.000320038 -0.0400937 -0.0265805 0.0181078 -0.00198355 0.0279787 0.0867061 0.0119092 0.0213242 -0.0946576 -0.0100868 -0.0330991 -0.0974349 -0.0240502 -0.0345588 0.00728937 0.00801021 -0.0081712 0.00710972 0.0412398 0.010035 0.0139831 0.0531997 0.0323176 0.0680597 0.0446416 0.0363205 0.0701748 -0.0179042 -0.028836 0.0138288 -0.0088836 -2.4862e-05 0.0206241 0.00328436 0.0273561 -0.0258752 0.0261699 0.0220009 0.0390922 0.0640439 0.0154235 0.043027 0.0664267 0.0204545 0.085513 0.0492254 0.0440276 0.0633614 -0.0217203 0.00306825 0.00157654 -0.0105286 0.0189771 0.00894984 0.0368347 0.0101552 0.0286724 0.00413611 -0.0356067 0.012039 -0.0223074 -0.0221322 0.0330269
label 2 17 15 3 14 23 16 4 5 25 13 1 0 6 8 10 12 7 27 11 22
nr_sv 7 9 6 5 8 8 6 6 5 7 8 5 6 6 4 7 7 8 7 6 7
SV
0 0.09242143737578813 0 0.1517417796706352 0 0.1427142451421923 0.09142214526393003 1.276954421788603 0.1154354238316419 0.5448575601355736 0.5007572547965808 0.02564945015276344 0.5063310581858188 1.942701879743315 0 0.141411049136074 3.112111752149108 0 0.5351555467455431 0.1456965514261309 1:1 2:1 3:1 4:1 5:1 6:1 7:1 8:1 9:1 10:1 11:1 12:1 13:1 15:1 16:1 17:1 18:1 19:1 20:1 22:1 23:1 26:1 27:1 28:1 29:1 30:1 31:1 34:1 36:1 37:1 38:1 39:1 40:1 41:1 42:1 43:1 45:1 47:1 48:1 49:1 51:1 52:1 53:1 54:1 58:1 59:1 60:1 62:1 63:1 64:1 65:1 67:1 70:1 74:1 75:1 78:1 79:1 83:1 88:1 89:1 90:1 91:1 93:1 94:1 95:1 98:1 99:1 
1.864715809967276 2.865857464020542 1.885077611934521 3.622551471766848 0 0.1435573205887003 4 0.5526163230793469 3.165440200636829 2.299206410150373 0.5030333940169487 0.3346746096718402 0.5086325325408819 3.546472490848787 0.02886583313132783 0.1414110491360746 4 1.193247611723692 4 0.1456965514261301 1:1 2:1 3:1 4:1 5:1 6:1 7:1 8:1 9:1 10:1 11:1 12:1 13:1 15:1 16:1 17:1 18:1 19:1 20:1 22:1 23:1 26:1 27:1 28:1 29:1 30:1 31:1 34:1 36:1 37:1 38:1 40:1 41:1 42:1 43:1 45:1 47:1 48:1 49:1 51:1 52:1 53:1 54:1 56:1 58:1 59:1 60:1 62:1 63:1 64:1 65:1 67:1 70:1 74:1 75:1 78:1 79:1 83:1 88:1 89:1 90:1 91:1 93:1 94:1 95:1 98:1 99:1 
0 0.1052204496244196 0 0.1487922131797295 0 0.1386174459068319 0.1347220331887371 0.5493683271734231 0.2875652190757548 0.5473341526367601 0.5053198791877784 0.02564945015276333 0.5109444680045823 0 0 0.1177496538235377 0 0 0.5375880397694168 0.1577292133358475 1:1 2:1 4:1 5:1 6:1 7:1 8:1 9:1 10:1 11:1 12:1 13:1 15:1 16:1 17:1 18:1 19:1 20:1 22:1 23:1 26:1 27:1 28:1 29:1 30:1 31:1 34:1 36:1 37:1 38:1 39:1 40:1 41:1 42:1 43:1 45:1 47:1 48:1 49:1 51:1 52:1 53:1 54:1 56:1 58:1 59:1 60:1 62:1 63:1 64:1 65:1 67:1 70:1 74:1 75:1 78:1 79:1 83:1 88:1 89:1 90:1 91:1 93:1 94:1 95:1 98:1 99:1 
1.902478511752521 0.1065839859363175 0 0.143093462183026 1.472836887373148 3.492182816642962 0.09197127335254582 1.284512960370024 0.1050368928821317 0.5467561779786667 0.5021752540546492 0.02360273322132904 0.5095323812033402 0 1.912281964065614 2.993536412289398 0.1014075901944364 1.210706029965047 0.5400315894334581 2.203011422579374 1:1 2:1 3:1 4:1 5:1 6:1 7:1 8:1 9:1 10:1 11:1 12:1 13:1 15:1 16:1 17:1 18:1 19:1 20:1 22:1 23:1 26:1 27:1 28:1 29:1 30:1 31:1 34:1 36:1 37:1 38:1 39:1 40:1 41:1 42:1 43:1 45:1 47:1 48:1 49:1 51:1 52:1 53:1 54:1 56:1 58:1 59:1 60:1 62:1 63:1 64:1 65:1 67:1 70:1 74:1 75:1 78:1 79:1 83:1 88:1 89:1 90:1 91:1 93:1 94:1 95:1 99:1 
0 0.1052204496244191 1.885077611934513 0.1430884076094222 1.472836887373157 0.1427142451421922 0.09142214526393051 0.5518654228898277 0.1154354238316412 0.5429410697118883 0.5031304530308223 0.3719727599552417 0.4955825950113976 0 0 0.1544292270340358 0 1.195375066991564 0.5424862459944407 0.1401516940783684 1:1 2:1 3:1 4:1 5:1 6:1 7:1 8:1 9:1 10:1 11:1 12:1 13:1 15:1 16:1 17:1 18:1 19:1 20:1 22:1 23:1 26:1 27:1 28:1 29:1 30:1 31:1 34:1 36:1 37:1 38:1 39:1 40:1 41:1 42:1 43:1 45:1 47:1 48:1 49:1 51:1 52:1 53:1 54:1 56:1 58:1 59:1 60:1 62:1 63:1 64:1 65:1 67:1 70:1 74:1 78:1 79:1 83:1 88:1 89:1 90:1 91:1 93:1 94:1 95:1 98:1 99:1 
0 0.5092089338067725 0 0.3355562370657378 0.1657453357722357 0.328737100336519 0.6002028203409292 0.5597101202855855 0.3220671085344307 1.019231486354651 0.5058252021709084 2.738573844877105 0.4857228696969704 0 1.223406409158662 0.3479705490337433 0.458033410124931 0 0.5355842362105633 0.339106361224824 1:1 2:1 3:1 4:1 5:1 6:1 7:1 8:1 9:1 10:1 11:1 12:1 13:1 15:1 16:1 17:1 18:1 19:1 20:1 22:1 23:1 26:1 27:1 28:1 29:1 30:1 31:1 34:1 36:1 37:1 38:1 39:1 40:1 41:1 42:1 43:1 45:1 48:1 49:1 51:1 52:1 53:1 54:1 56:1 58:1 59:1 60:1 62:1 63:1 64:1 67:1 70:1 74:1 75:1 78:1 79:1 83:1 88:1 89:1 90:1 91:1 93:1 94:1 95:1 98:1 99:1 
0 0 0 0 0 0 0 1.036400429515076 0 0 1.829294461374976 0 1.960825029141922 0 0 0 0 0 1.414073948132049 0 1:1 2:1 3:1 4:1 5:1 6:1 7:1 8:1 9:1 10:1 11:1 12:1 13:1 15:1 16:1 17:1 18:1 19:1 20:1 22:1 23:1 26:1 27:1 28:1 29:1 30:1 31:1 34:1 36:1 37:1 38:1 39:1 40:1 41:1 42:1 43:1 45:1 47:1 48:1 49:1 51:1 52:1 53:1 54:1 56:1 58:1 59:1 60:1 62:1 63:1 64:1 65:1 67:1 70:1 74:1 75:1 78:1 79:1 83:1 88:1 89:1 90:1 91:1 93:1 94:1 95:1 98:1 99:1 
-0 1.848146418982804 0 0 0 0 0 0 0.3741344171874994 0 0 0 0 0 0 0 0 0 0 0 1:1 2:1 3:1 4:1 5:1 6:1 7:1 8:1 9:1 10:1 11:1 12:1 23:1 34:1 35:1 36:1 37:1 38:1 40:1 41:1 42:1 43:1 44:1 45:1 46:1 47:1 48:1 49:1 51:1 52:1 53:1 54:1 55:1 56:1 57:1 58:1 59:1 60:1 62:1 63:1 64:1 65:1 66:1 67:1 68:1 69:1 70:1 71:1 73:1 74:1 75:1 76:1 77:1 78:1 89:1 
-0 0.2688815767725868 0 0.8805641133816809 4 0 0.528484837445548 0 0.9206134701539583 0.2770066873145952 0 1.158410539226671 0.6194882024901792 0.5305575583909548 1.612080364905592 0.5169583680419285 0 2.461077129547539 0 4 1:1 2:1 3:1 4:1 5:1 6:1 7:1 8:1 9:1 10:1 11:1 12:1 23:1 34:1 35:1 36:1 38:1 40:1 41:1 42:1 43:1 44:1 45:1 46:1 47:1 48:1 49:1 52:1 53:1 54:1 55:1 56:1 57:1 58:1 59:1 60:1 62:1 63:1 64:1 65:1 66:1 67:1 68:1 69:1 70:1 71:1 73:1 74:1 75:1 76:1 77:1 78:1 89:1 100:1 101:1 102:1 103:1 105:1 106:1 107:1 108:1 109:1 110:1 
-1.717070128495275 0.4782604688512443 0.1823259795073299 2.119582655319024 0 2.096276185555471 1.436320935826038 2.212537681681674 1.104517442745177 3.193412116413698 0.7863148825415468 0.643199937948864 0 2.159490229444143 0.8712959066105243 1.303732810108055 2.266139523740151 1.371881240201234 2.625902144567095 0.6556814306290899 1:1 2:1 3:1 4:1 5:1 6:1 7:1 8:1 9:1 10:1 11:1 12:1 23:1 34:1 35:1 36:1 37:1 38:1 41:1 42:1 43:1 45:1 46:1 47:1 48:1 49:1 51:1 52:1 53:1 54:1 55:1 56:1 57:1 58:1 59:1 60:1 62:1 63:1 64:1 65:1 66:1 67:1 68:1 69:1 70:1 71:1 73:1 74:1 75:1 76:1 77:1 78:1 89:1 
-0.2172185102394367 0.4848617040554005 0 0 0 0 0 0 0.4809959413648192 0.1680677156454542 0 0 0.2429613823112421 0 0 0 0 0 0 0.775310731035538 1:1 2:1 3:1 4:1 5:1 6:1 7:1 8:1 9:1 11:1 12:1 23:1 34:1 35:1 36:1 37:1 38:1 40:1 41:1 42:1 43:1 44:1 45:1 46:1 47:1 48:1 49:1 51:1 52:1 53:1 54:1 55:1 56:1 57:1 58:1 59:1 60:1 62:1 63:1 64:1 65:1 66:1 67:1 68:1 69:1 70:1 71:1 73:1 74:1 75:1 76:1 77:1 78:1 89:1 
-0.6924918436991198 0.2722069929735029 1.403864627964114 1.463822972625197 0 0.7634796227953143 1.231292945072084 1.72140177786132 2.329775323295536 2.417828730271861 0.5529020486604547 0.01467794473977174 0 0 0.4227220437689626 1.155545446499709 1.375976982002322 0.3418353274769325 3.369224645837018 1.696225999218141 1:1 2:1 3:1 4:1 5:1 6:1 7:1 8:1 9:1 10:1 11:1 12:1 23:1 34:1 35:1 36:1 37:1 38:1 40:1 41:1 42:1 43:1 44:1 45:1 46:1 47:1 48:1 49:1 51:1 52:1 53:1 54:1 55:1 56:1 57:1 58:1 59:1 60:1 62:1 63:1 64:1 65:1 66:1 67:1 68:1 69:1 70:1 71:1 74:1 75:1 76:1 77:1 78:1 89:1 100:1 101:1 102:1 103:1 104:1 105:1 106:1 107:1 108:1 109:1 110:1 
-0.3498802025601583 0.4755313152034345 0.9465812251162244 0.1820943637003838 2.825158801004281 0.1061394621355034 0 0 1.093591446988994 0.331938483275402 0 0 0 0 0.1657117987681682 0 0 1.911671919829982 0.152884098564411 0.1850789877970634 1:1 2:1 4:1 5:1 6:1 7:1 8:1 9:1 10:1 11:1 12:1 23:1 34:1 35:1 36:1 37:1 38:1 40:1 41:1 42:1 43:1 44:1 45:1 46:1 47:1 48:1 49:1 51:1 52:1 53:1 54:1 55:1 56:1 57:1 58:1 59:1 60:1 62:1 63:1 64:1 65:1 66:1 67:1 68:1 69:1 70:1 71:1 73:1 74:1 76:1 77:1 78:1 89:1 
-0.2296239571067591 0.4788600523391572 0 0 0 0 0 0 0.4829737755826884 0.164069773636649 0 0 0 0 0 0 0 0 0 0 1:1 2:1 3:1 4:1 5:1 6:1 7:1 8:1 9:1 10:1 11:1 23:1 34:1 35:1 36:1 37:1 38:1 40:1 41:1 42:1 43:1 44:1 45:1 46:1 47:1 48:1 49:1 51:1 52:1 53:1 54:1 55:1 56:1 57:1 58:1 59:1 60:1 62:1 63:1 64:1 65:1 66:1 67:1 68:1 69:1 70:1 71:1 73:1 74:1 75:1 76:1 77:1 78:1 89:1 
-0.343259329449165 0.9876365449286856 0.9533777725612994 0.489171734935424 0 2.104045261819769 1.1396610372014 1.316823608654117 0.4940631617533689 0.3356893739389517 0.7872863906078233 0 1.18193312155815 0.6312096753116035 2.181082811636267 1.305741768665495 0.680272674429533 0 0.1563161001807383 0.188661564424228 1:1 2:1 3:1 4:1 5:1 6:1 7:1 8:1 9:1 10:1 11:1 12:1 23:1 34:1 35:1 36:1 37:1 38:1 40:1 42:1 44:1 45:1 46:1 47:1 48:1 49:1 51:1 52:1 53:1 54:1 55:1 56:1 57:1 58:1 59:1 60:1 62:1 63:1 64:1 65:1 66:1 67:1 68:1 69:1 70:1 71:1 73:1 74:1 75:1 76:1 77:1 78:1 89:1 
-0.2176503501698834 0.4734599958704548 0 0 4 0 0 0 0.4781231610014895 0.1649431216829979 1.09557677240588 0.7775347737964153 1.836284597875118 0.7780555093794448 0 0 0 2.214511984290831 0 4 1:1 2:1 3:1 4:1 5:1 6:1 7:1 8:1 9:1 10:1 11:1 12:1 23:1 34:1 35:1 36:1 37:1 38:1 40:1 41:1 42:1 43:1 44:1 45:1 46:1 47:1 48:1 49:1 51:1 52:1 53:1 54:1 55:1 56:1 57:1 58:1 59:1 60:1 63:1 64:1 65:1 66:1 67:1 68:1 69:1 70:1 71:1 73:1 74:1 75:1 76:1 77:1 78:1 89:1 
-0 -0 0 4 0 0 0 0 1.414429894879286 0 0 0 0 0 0 0 0 0 0 0 1:1 2:1 3:1 4:1 5:1 6:1 7:1 8:1 9:1 10:1 11:1 12:1 23:1 34:1 36:1 37:1 38:1 40:1 41:1 42:1 43:1 44:1 45:1 47:1 48:1 49:1 51:1 52:1 53:1 54:1 55:1 56:1 58:1 59:1 60:1 62:1 63:1 64:1 65:1 66:1 67:1 69:1 70:1 71:1 73:1 74:1 75:1 76:1 77:1 78:1 80:1 81:1 82:1 83:1 84:1 85:1 86:1 87:1 88:1 89:1 91:1 92:1 93:1 94:1 95:1 96:1 97:1 98:1 99:1 
-0.4923994122106046 -1.257261203110857 2.27323309658084 3.784270432557925 0.2123834601562067 0.2908072103822289 0.5629737254949619 0.5929875210155604 0.5434904318365174 0.5333822478988364 0.5363994139296228 0.5567469287742645 2.078266174352271 0.5145881736665078 2.064916574515639 0.5187115111235251 0.5441456373720729 0.5535426725141259 0.5377007959732563 0.3071277210654671 1:1 2:1 3:1 4:1 5:1 6:1 7:1 8:1 9:1 10:1 11:1 12:1 23:1 34:1 36:1 37:1 38:1 40:1 42:1 43:1 44:1 45:1 47:1 48:1 49:1 51:1 52:1 53:1 54:1 55:1 56:1 58:1 59:1 60:1 62:1 63:1 64:1 65:1 66:1 67:1 69:1 70:1 71:1 73:1 74:1 75:1 76:1 77:1 78:1 80:1 81:1 82:1 83:1 84:1 85:1 86:1 87:1 88:1 89:1 91:1 92:1 93:1 94:1 95:1 96:1 97:1 98:1 99:1 
-0 -0 0 4 0 0 0 0 4 0 0 0 0 0 0 0 0 0 0.4545588424261873 0 1:1 2:1 3:1 4:1 5:1 6:1 7:1 8:1 9:1 10:1 11:1 12:1 23:1 34:1 36:1 37:1 38:1 40:1 41:1 42:1 43:1 44:1 45:1 47:1 48:1 49:1 51:1 52:1 53:1 54:1 55:1 56:1 58:1 59:1 60:1 62:1 63:1 64:1 65:1 66:1 67:1 69:1 70:1 71:1 73:1 74:1 75:1 76:1 77:1 78:1 80:1 81:1 82:1 83:1 84:1 85:1 86:1 87:1 88:1 89:1 91:1 92:1 93:1 94:1 95:1 96:1 97:1 98:1 99:1 
-2.169567314044 -0 0 4 0 0 3.09924446021019 1.944615015915699 4 2.995902271644072 0.3226274633975376 0.1355581384890178 0 1.738058481949768 0 0.266153363504162 2.268945591925617 1.37951462119483 4 0 1:1 2:1 3:1 4:1 5:1 6:1 7:1 8:1 9:1 10:1 11:1 12:1 23:1 34:1 36:1 37:1 38:1 40:1 41:1 42:1 43:1 44:1 45:1 47:1 48:1 49:1 51:1 52:1 53:1 54:1 55:1 56:1 58:1 59:1 60:1 62:1 63:1 64:1 65:1 66:1 67:1 69:1 70:1 71:1 73:1 74:1 75:1 76:1 77:1 78:1 80:1 81:1 82:1 83:1 84:1 85:1 86:1 87:1 88:1 89:1 91:1 92:1 93:1 94:1 95:1 96:1 97:1 98:1 99:1 
-0.6247111308597213 -0.5105838668664132 0.4601921426215395 0.9445880872550889 0.6581007916934212 0.4527644438779135 0.5475818788953292 0.5871737598807113 0.8288999792280146 0.5906943967091879 2.23613035726305 1.958720718726106 1.232618995114743 0.5098921671745665 1.609172967860024 0.5217686423926472 0.5420592804335643 0.5565804091906312 0.5303407333271382 0.472457180517951 1:1 2:1 3:1 4:1 5:1 6:1 7:1 8:1 9:1 10:1 11:1 12:1 23:1 34:1 36:1 37:1 38:1 40:1 41:1 43:1 44:1 45:1 48:1 49:1 51:1 52:1 54:1 55:1 56:1 58:1 59:1 60:1 62:1 63:1 64:1 65:1 66:1 67:1 69:1 70:1 71:1 73:1 74:1 75:1 76:1 77:1 78:1 80:1 81:1 82:1 83:1 84:1 85:1 86:1 87:1 88:1 89:1 91:1 92:1 93:1 94:1 95:1 96:1 97:1 98:1 99:1 
-0.4978348632739327 -4 0.3101243535545724 1.728346570224529 2.946518286604491 3.814348922434255 0.5629737254949616 2.096596674045984 4 0.8863794133252498 0.5077124760486881 0.556746928774264 2.117841214829763 0.5145881736664828 0 4 0.5361709533447661 4 0.5377007959732554 3.15708181649589 1:1 2:1 3:1 4:1 5:1 6:1 7:1 8:1 9:1 10:1 11:1 12:1 23:1 34:1 36:1 37:1 38:1 40:1 41:1 42:1 43:1 44:1 45:1 47:1 48:1 49:1 51:1 52:1 53:1 54:1 55:1 56:1 58:1 59:1 60:1 62:1 63:1 64:1 65:1 66:1 67:1 69:1 70:1 71:1 73:1 74:1 75:1 76:1 77:1 78:1 80:1 81:1 82:1 83:1 84:1 85:1 86:1 87:1 88:1 89:1 92:1 93:1 94:1 95:1 96:1 97:1 98:1 99:1 
-0.4679649401232746 -1.096013492661955 -0.1842324695821758 0.01073371051735019 1.161107626473462 1.520598941303709 1.171901129937066 0.4236106415148936 0 1.083115928525096 0.4764897918809072 0.48836770135411 0.1649324263710584 1.166401400433518 1.379581392938041 0.03496513489257486 0 0 0.3072581956290582 0.9768239263380117 1:1 2:1 3:1 4:1 5:1 6:1 7:1 8:1 9:1 10:1 11:1 12:1 13:1 14:1 15:1 16:1 17:1 20:1 21:1 22:1 23:1 24:1 25:1 26:1 27:1 31:1 32:1 33:1 34:1 35:1 36:1 37:1 40:1 42:1 43:1 44:1 45:1 46:1 47:1 50:1 51:1 53:1 54:1 55:1 56:1 57:1 60:1 61:1 62:1 64:1 65:1 66:1 67:1 78:1 89:1 90:1 91:1 92:1 93:1 94:1 97:1 98:1 99:1 
-0.4679649401232767 -1.095272287153948 -2.188212443061631 2.105025581298504 1.166585376660629 1.538106092160792 1.167860460076742 2.109744090102249 1.915826931059858 1.097027575627048 0.4732395363100995 0.4905875251676762 2.574895895053481 1.166401400433513 1.37401662317083 2.129752980027621 2.002264818699997 1.567711892882822 2.114449013872091 0.97300453546037 1:1 2:1 3:1 4:1 5:1 6:1 7:1 8:1 9:1 10:1 11:1 12:1 13:1 14:1 15:1 16:1 17:1 20:1 21:1 22:1 23:1 24:1 25:1 26:1 27:1 32:1 33:1 34:1 35:1 36:1 37:1 40:1 42:1 43:1 44:1 45:1 46:1 47:1 50:1 51:1 53:1 54:1 55:1 56:1 57:1 60:1 61:1 62:1 64:1 65:1 66:1 67:1 78:1 89:1 90:1 91:1 92:1 93:1 94:1 95:1 97:1 98:1 99:1 
-0.2599811810918555 -0 -0.05417439137994387 0 0 0 0 0.2213660458482178 0 0 0.197278501704142 0.36143607120171 0.04468860995533671 0.6171639270106987 0 0 0.6228032521133153 0.3979432857100432 0 0 1:1 2:1 3:1 4:1 5:1 6:1 7:1 9:1 10:1 11:1 12:1 13:1 14:1 15:1 16:1 17:1 20:1 21:1 22:1 23:1 24:1 25:1 26:1 27:1 31:1 32:1 33:1 34:1 35:1 36:1 37:1 42:1 43:1 44:1 45:1 46:1 47:1 50:1 51:1 53:1 54:1 55:1 56:1 57:1 60:1 61:1 62:1 64:1 65:1 66:1 67:1 78:1 89:1 90:1 91:1 92:1 93:1 94:1 95:1 97:1 98:1 99:1 
-0.4911310968844557 -1.294863825333066 -0.6169302887332012 1.125620040676619 1.193422985495903 0.4253220641782657 1.052667922234119 1.280227027559283 1.301296225871481 1.354414066458091 0.6439224063562551 1.032010410265348 0.6518670977582924 0.5090076952955124 1.452077012550622 1.05750510203342 1.427422854578902 1.466475157888429 1.300737820646779 1.386092133233433 1:1 2:1 3:1 4:1 5:1 6:1 8:1 9:1 10:1 12:1 13:1 14:1 15:1 16:1 17:1 20:1 21:1 23:1 24:1 25:1 26:1 27:1 31:1 32:1 33:1 34:1 35:1 36:1 37:1 42:1 43:1 44:1 45:1 46:1 47:1 50:1 51:1 53:1 54:1 55:1 56:1 57:1 60:1 61:1 62:1 64:1 65:1 66:1 67:1 78:1 89:1 90:1 91:1 92:1 93:1 94:1 95:1 97:1 98:1 99:1 100:1 101:1 102:1 103:1 104:1 105:1 106:1 107:1 108:1 109:1 110:1 
-2.083113065646171 -0 -0 0 0 0 0 0 0 0 1.479929424555794 0.7787021126094624 0 0 0 0 0 0 0 0 1:1 2:1 3:1 4:1 5:1 6:1 7:1 8:1 9:1 10:1 11:1 12:1 13:1 14:1 15:1 16:1 17:1 20:1 21:1 22:1 23:1 24:1 25:1 26:1 27:1 31:1 32:1 33:1 34:1 35:1 36:1 37:1 40:1 42:1 43:1 44:1 45:1 46:1 47:1 50:1 51:1 53:1 54:1 55:1 56:1 57:1 60:1 61:1 62:1 64:1 65:1 66:1 67:1 78:1 89:1 90:1 91:1 92:1 93:1 94:1 95:1 97:1 98:1 99:1 
-0.2801194207469143 -2.287187416873739 -0.6396328607326983 -1.000766565337902 1.364411945151853 0.5002353152877542 2.850627311728222 2.027958638411618 4 2.615470920061914 0.4638910626708943 1.223506979774261 0.4590148328657954 0.4788908030923129 1.150311827947351 3.457916177128584 1.445771704862226 2.988576884804416 2.079450545145881 1.441805462748 1:1 2:1 3:1 4:1 5:1 6:1 7:1 8:1 9:1 10:1 11:1 12:1 23:1 34:1 36:1 37:1 38:1 40:1 41:1 42:1 43:1 45:1 47:1 48:1 49:1 51:1 52:1 53:1 54:1 56:1 58:1 59:1 60:1 62:1 63:1 64:1 65:1 67:1 69:1 70:1 71:1 73:1 74:1 75:1 76:1 78:1 80:1 81:1 82:1 83:1 84:1 85:1 86:1 87:1 89:1 90:1 91:1 92:1 93:1 94:1 95:1 96:1 97:1 98:1 99:1 100:1 101:1 102:1 103:1 104:1 105:1 106:1 107:1 108:1 109:1 110:1 
-0 -1.046768356586588 -2.219938355043037 -0 1.426766109377558 0.4781390958884318 0 0.2782894576777381 0.5060189920453723 0 0 1.617345726658054 0 0.2495408536216855 1.004103209066407 0.4941666895890921 0 0.1545309311812237 0 0.9574545838743127 1:1 2:1 3:1 4:1 5:1 6:1 7:1 8:1 9:1 10:1 11:1 12:1 23:1 34:1 36:1 38:1 40:1 41:1 42:1 43:1 45:1 47:1 48:1 49:1 51:1 52:1 53:1 54:1 56:1 58:1 59:1 60:1 62:1 63:1 64:1 65:1 67:1 69:1 70:1 71:1 73:1 74:1 75:1 76:1 78:1 80:1 81:1 82:1 83:1 84:1 85:1 86:1 87:1 89:1 90:1 91:1 92:1 93:1 94:1 95:1 96:1 97:1 98:1 99:1 
-0 -0 -4 -0 0 0 0 0 0 0 0 0 0 0 0 0 0 0 0 0 1:1 2:1 3:1 4:1 5:1 6:1 7:1 8:1 9:1 10:1 11:1 12:1 23:1 34:1 36:1 37:1 38:1 40:1 41:1 42:1 43:1 45:1 47:1 48:1 49:1 51:1 52:1 53:1 54:1 56:1 58:1 59:1 60:1 62:1 63:1 64:1 65:1 67:1 69:1 70:1 71:1 73:1 74:1 75:1 76:1 78:1 80:1 81:1 82:1 83:1 84:1 85:1 86:1 87:1 89:1 90:1 91:1 92:1 93:1 94:1 95:1 96:1 97:1 98:1 99:1 
-0 -0 -4 -0 0 0 0 0 0.8841575705353447 0 0 0 0 0 0 0 0 0 0 0 1:1 2:1 3:1 4:1 5:1 6:1 7:1 8:1 9:1 10:1 11:1 12:1 23:1 34:1 36:1 37:1 38:1 40:1 41:1 42:1 43:1 45:1 47:1 48:1 49:1 51:1 52:1 53:1 54:1 56:1 58:1 59:1 60:1 62:1 63:1 64:1 65:1 67:1 69:1 70:1 71:1 73:1 74:1 75:1 76:1 78:1 80:1 81:1 82:1 83:1 84:1 85:1 86:1 87:1 89:1 90:1 91:1 92:1 93:1 94:1 95:1 96:1 97:1 98:1 99:1 
-2.750677608528113 -0.9814881745122457 -1.3371217247388 -1.240083106333697 0 2.766244135136313 0 4 0.504900436153362 3.579685769240201 3.377604564025245 0 0.2623205774978583 1.715995145181991 0.7574423014409652 1.098098769057315 2.480351213328471 1.030071161660994 4 0.7327447268515679 1:1 2:1 3:1 4:1 5:1 6:1 7:1 8:1 9:1 10:1 11:1 12:1 23:1 34:1 36:1 37:1 38:1 40:1 41:1 42:1 43:1 45:1 47:1 48:1 49:1 51:1 52:1 53:1 54:1 56:1 58:1 59:1 60:1 62:1 63:1 64:1 65:1 67:1 70:1 71:1 74:1 75:1 76:1 78:1 80:1 81:1 82:1 83:1 84:1 85:1 86:1 87:1 89:1 90:1 91:1 92:1 93:1 94:1 95:1 96:1 97:1 98:1 99:1 
-1.033790419611554 -0 -0.03525602611146635 -0 0 0 2.594926311584127 0 0.01778045037023628 0 0 0 0 0 0 0 0.3421878432658926 0 2.0350826355413 0 1:1 2:1 3:1 4:1 5:1 6:1 7:1 8:1 9:1 10:1 11:1 12:1 23:1 34:1 36:1 37:1 38:1 40:1 41:1 42:1 43:1 45:1 47:1 48:1 49:1 51:1 52:1 53:1 54:1 56:1 58:1 59:1 60:1 62:1 63:1 64:1 65:1 67:1 69:1 70:1 73:1 74:1 75:1 76:1 78:1 80:1 81:1 82:1 83:1 84:1 85:1 86:1 87:1 89:1 90:1 91:1 92:1 93:1 94:1 95:1 96:1 97:1 98:1 99:1 
-0.4802361225888181 -0.8197918919891376 -2.225256123411541 -1.000529660820875 0.8219972909276724 0.4820927898113996 0.5065349937782914 0.4852054006095562 0.5000052799328353 0.1958451123533927 0.3278874222749458 0.8740330988573565 3.924133197979201 1.306064452471576 0.6745169642658045 0.4926694052419952 0.5120216663659377 2.018149721204002 0.4929438175061468 0.6659798830142944 1:1 2:1 3:1 4:1 5:1 6:1 7:1 8:1 9:1 10:1 11:1 12:1 23:1 34:1 36:1 37:1 38:1 40:1 42:1 43:1 45:1 47:1 48:1 49:1 52:1 53:1 54:1 56:1 58:1 59:1 60:1 62:1 63:1 64:1 65:1 67:1 69:1 70:1 73:1 74:1 75:1 76:1 78:1 80:1 81:1 82:1 83:1 84:1 85:1 86:1 87:1 89:1 90:1 91:1 92:1 93:1 94:1 95:1 96:1 97:1 98:1 99:1 
-0 -0 -4 -0 0 1.378425178928757 0 0 4 0 0 0 0 0 0 1.441212360933775 0 0 0 0 1:1 2:1 3:1 4:1 5:1 6:1 7:1 8:1 9:1 10:1 11:1 12:1 23:1 34:1 36:1 37:1 38:1 40:1 41:1 42:1 43:1 45:1 47:1 48:1 49:1 51:1 52:1 53:1 54:1 56:1 58:1 59:1 60:1 62:1 63:1 64:1 65:1 67:1 69:1 70:1 71:1 73:1 74:1 75:1 76:1 78:1 80:1 81:1 82:1 83:1 84:1 85:1 86:1 87:1 89:1 90:1 91:1 92:1 93:1 94:1 95:1 96:1 97:1 98:1 99:1 
-0.1236974058220325 -0.4915789925634498 -0.9342724261848426 -0 -0.4813696571122266 0.4853139480388237 0.3926496253180725 0.3436635554577521 0.4921443050999573 0 0 0.6808547807974132 0.4923765295801915 0.05802578832539408 1.671608268243644 0.240660562063793 0 0.4902079305062995 0 0.5750818928444885 1:1 2:1 3:1 4:1 5:1 6:1 7:1 8:1 9:1 10:1 11:1 12:1 23:1 34:1 35:1 39:1 40:1 41:1 42:1 43:1 44:1 45:1 46:1 52:1 53:1 54:1 55:1 56:1 57:1 58:1 59:1 60:1 64:1 65:1 66:1 67:1 68:1 69:1 70:1 71:1 72:1 73:1 77:1 78:1 89:1 
-0.3711025825450121 -0.5111663946503505 -0.4817725255181037 -0.9327796824043516 -0.4993825259587947 0.4919148931543659 0.4802107631591099 0.4935421515236671 0.5016741166342675 0.2333873261626491 0.7886525134624309 0.9618589747874098 1.040571712065406 0.3874835964528436 0.7914673453837043 0.4314356084844544 0.3171416588551559 0.518633394449851 0.2530899884982866 1.474355223017025 1:1 2:1 3:1 4:1 5:1 6:1 7:1 8:1 9:1 10:1 12:1 23:1 34:1 35:1 39:1 40:1 41:1 42:1 43:1 44:1 45:1 46:1 47:1 53:1 54:1 55:1 56:1 57:1 58:1 59:1 60:1 65:1 66:1 67:1 68:1 69:1 70:1 71:1 72:1 73:1 77:1 89:1 
-0 -0 -0.02502031236377093 -0 -0 0.03432993374238436 0.07447516641332466 0 0 0 0 0 0.03367552740661532 0 0 0 0 0 0 0 1:1 2:1 3:1 4:1 5:1 6:1 7:1 8:1 9:1 10:1 11:1 12:1 23:1 34:1 35:1 39:1 40:1 41:1 42:1 43:1 44:1 45:1 46:1 47:1 52:1 53:1 54:1 55:1 56:1 57:1 58:1 59:1 60:1 64:1 66:1 67:1 68:1 69:1 70:1 71:1 72:1 73:1 77:1 78:1 89:1 
-0.4721609110576594 -3.553656070958634 -0.4972545379807643 -1.144967440951786 -1.396643629769126 0.5052706145289277 1.687220697976649 1.284997208535714 1.930165468015163 1.7466282093888 0.4490893486325433 1.143329239443755 0.5012546125775704 0.4798631616114378 1.14653158447322 1.515568121331376 1.091011356458248 2.575913996817749 1.401758488010501 4 1:1 2:1 3:1 4:1 5:1 6:1 7:1 8:1 9:1 10:1 11:1 12:1 23:1 34:1 35:1 39:1 40:1 41:1 42:1 43:1 44:1 45:1 46:1 47:1 52:1 53:1 54:1 55:1 56:1 57:1 58:1 59:1 60:1 64:1 66:1 67:1 68:1 69:1 70:1 71:1 72:1 73:1 77:1 78:1 89:1 100:1 101:1 102:1 103:1 104:1 105:1 106:1 107:1 108:1 109:1 110:1 
-2.113141560417603 -0.5015094319197974 -0.4697931362040182 -1.443368865273857 -0.4739041738527985 0.4952785742890911 0.4016469023420567 1.592600925281144 0.5028192520116325 3.210124062979422 1.689909281978491 0 0.4871667684520478 2.5116648839529 1.669756972950359 1.107190014592182 2.093297939018069 2.616569728817016 2.697415640298755 4 1:1 2:1 3:1 4:1 5:1 6:1 7:1 8:1 9:1 10:1 11:1 12:1 23:1 34:1 35:1 39:1 40:1 41:1 42:1 43:1 44:1 45:1 46:1 47:1 52:1 53:1 54:1 55:1 56:1 57:1 58:1 59:1 60:1 64:1 65:1 66:1 67:1 68:1 70:1 71:1 72:1 73:1 77:1 78:1 89:1 
-0 -2.832378918346317 -0 -0 -0 0 0 0 0 0 0 0 0 0 0 0 0 0 0 0 1:1 2:1 3:1 4:1 5:1 6:1 7:1 8:1 9:1 10:1 11:1 12:1 23:1 34:1 35:1 39:1 40:1 41:1 42:1 43:1 44:1 45:1 46:1 47:1 52:1 53:1 54:1 55:1 56:1 57:1 58:1 59:1 60:1 64:1 65:1 66:1 67:1 68:1 69:1 70:1 71:1 72:1 73:1 77:1 78:1 89:1 
-0 -2.443290000002282 -0.9462535634675988 -0 -0.2682059340177224 1.439348298363359 0 0 0.6012413191320658 0 0 0 0.1968520459761509 0 0 0 0 0 0 3.216755432492215 1:1 2:1 3:1 4:1 5:1 6:1 7:1 8:1 9:1 10:1 11:1 12:1 23:1 34:1 35:1 39:1 40:1 41:1 42:1 43:1 44:1 45:1 46:1 47:1 52:1 53:1 54:1 55:1 56:1 57:1 58:1 59:1 60:1 64:1 65:1 66:1 67:1 68:1 69:1 70:1 71:1 72:1 73:1 77:1 78:1 89:1 
-0.03131665067623433 -0.4915789925634497 -0.4626360367350195 -0 -0.4936694247464164 0.4833612470672938 0.4120795991216746 0.3436635554577384 0.5052823991711727 0 0 0 0.4923765295801754 0.05395274838341169 0 0.2406605620637994 0 0.4524937724713453 0 0.5313846632421824 1:1 2:1 3:1 4:1 5:1 6:1 7:1 9:1 10:1 11:1 12:1 23:1 34:1 35:1 39:1 40:1 41:1 42:1 43:1 44:1 45:1 46:1 47:1 52:1 53:1 54:1 55:1 56:1 57:1 58:1 59:1 60:1 64:1 65:1 66:1 67:1 68:1 69:1 70:1 71:1 72:1 73:1 77:1 78:1 89:1 
-0 -0 -0.441922836872003 -0.5078832593331515 -0.525702634612303 -0 0.5076428303118795 0.5636236824789063 0 0 0 0.5304327034010252 0 0.509922592082917 0.2838352059791945 0.5240234507962813 0.6420761143030531 0 0 0 1:1 2:1 3:1 4:1 5:1 6:1 7:1 8:1 10:1 11:1 12:1 13:1 14:1 21:1 22:1 23:1 24:1 33:1 34:1 37:1 38:1 39:1 40:1 41:1 42:1 45:1 47:1 48:1 49:1 50:1 51:1 52:1 53:1 54:1 56:1 58:1 59:1 60:1 61:1 62:1 63:1 64:1 65:1 67:1 69:1 70:1 71:1 72:1 74:1 75:1 76:1 78:1 81:1 82:1 83:1 89:1 90:1 92:1 93:1 94:1 99:1 
-1.343995696175059 -2.536752001976128 -2.270067714212565 -0.5254605118350837 -2.793379541284781 -1.966329817077342 3.109516537100463 0.5832396956173501 1.395648417697448 2.719013427725215 1.2535472832995 0.5252352470810087 1.083676141872041 0.5195927547226042 1.990990260814333 0.5197115073260135 2.060851162338852 2.133911893060294 2.009896961055571 2.04485468839629 1:1 2:1 3:1 4:1 5:1 6:1 7:1 8:1 9:1 10:1 11:1 12:1 13:1 14:1 21:1 22:1 23:1 33:1 34:1 37:1 38:1 39:1 40:1 41:1 42:1 45:1 47:1 48:1 49:1 50:1 51:1 52:1 53:1 54:1 56:1 58:1 59:1 60:1 61:1 62:1 63:1 64:1 65:1 67:1 69:1 70:1 71:1 72:1 74:1 75:1 76:1 78:1 81:1 82:1 83:1 89:1 90:1 92:1 93:1 94:1 
-0 -0 -0 -0 -0 -0 0 0.1458906184520528 0 0 0 0 0 0 0 3.593927466324592 0 0 0 0 1:1 2:1 3:1 4:1 5:1 6:1 7:1 8:1 9:1 10:1 11:1 12:1 13:1 14:1 21:1 22:1 23:1 24:1 33:1 34:1 37:1 38:1 39:1 40:1 41:1 42:1 45:1 47:1 48:1 49:1 50:1 51:1 52:1 53:1 54:1 56:1 58:1 59:1 60:1 61:1 62:1 63:1 64:1 65:1 67:1 69:1 70:1 71:1 72:1 74:1 75:1 76:1 78:1 81:1 82:1 83:1 89:1 90:1 92:1 93:1 94:1 99:1 
-3.044527477584339 -2.533188530329929 -0.4987313704331989 -1.712604844066591 -0.5133316500938391 -1.968487692106905 0.5149250881129684 4 3.152739148040736 4 2.772667536477296 0.5218200758241148 2.259268025247603 4 1.993292610422779 4 4 2.133911893060292 4 2.044854688396289 1:1 2:1 3:1 4:1 5:1 6:1 7:1 8:1 9:1 10:1 11:1 12:1 13:1 14:1 21:1 22:1 23:1 24:1 33:1 34:1 37:1 38:1 39:1 40:1 41:1 42:1 45:1 47:1 48:1 49:1 50:1 51:1 52:1 53:1 54:1 56:1 58:1 59:1 60:1 61:1 62:1 63:1 64:1 65:1 67:1 69:1 70:1 71:1 72:1 74:1 75:1 76:1 78:1 82:1 83:1 89:1 90:1 93:1 94:1 99:1 
-0 -0 -0 -0 -0 -0 0 4 0 0 0 0 0 0 0 4 0 0 0 0 1:1 2:1 3:1 4:1 5:1 6:1 7:1 8:1 9:1 10:1 11:1 12:1 13:1 14:1 21:1 22:1 23:1 24:1 33:1 34:1 37:1 38:1 39:1 40:1 41:1 42:1 45:1 47:1 48:1 49:1 50:1 51:1 52:1 53:1 54:1 56:1 58:1 59:1 60:1 61:1 62:1 63:1 64:1 65:1 67:1 69:1 70:1 71:1 72:1 74:1 75:1 76:1 78:1 81:1 82:1 83:1 89:1 90:1 92:1 93:1 94:1 99:1 
-0 -0 -1.347198655176631 -0.7380784824079403 -1.772722689061732 -0 2.09604267562884 4 0 0 0 1.467453327492245 0 0.5447606451388107 0 4 0 0 0 0 1:1 2:1 3:1 4:1 5:1 6:1 7:1 8:1 9:1 10:1 11:1 12:1 13:1 14:1 21:1 22:1 23:1 24:1 33:1 34:1 37:1 38:1 39:1 40:1 41:1 42:1 45:1 47:1 48:1 49:1 50:1 51:1 52:1 53:1 54:1 56:1 58:1 59:1 60:1 61:1 62:1 63:1 64:1 65:1 67:1 69:1 70:1 71:1 72:1 74:1 75:1 76:1 78:1 81:1 82:1 83:1 89:1 90:1 92:1 93:1 94:1 99:1 
-0.4551280687595188 -0.7848383164316469 -0.4518687386854785 -1.13617441957863 -0.4845092163937882 -0 -0.4846153605055274 3.732600538336442 0.5026121758906423 0.515397563100831 0.4834655019148473 0.612394292394292 0.4877962278861629 4 1.219114854703836 0.5105219522708452 3.37478945359649 2.02269169342381 0.5153938936986625 0.102892638076433 1:1 2:1 3:1 4:1 5:1 6:1 7:1 8:1 9:1 10:1 11:1 12:1 18:1 19:1 21:1 22:1 23:1 29:1 30:1 33:1 34:1 36:1 37:1 38:1 41:1 42:1 45:1 47:1 48:1 50:1 51:1 52:1 53:1 54:1 56:1 58:1 59:1 61:1 62:1 63:1 64:1 65:1 67:1 69:1 70:1 73:1 74:1 75:1 78:1 80:1 81:1 82:1 88:1 89:1 90:1 91:1 92:1 93:1 94:1 98:1 99:1 
-0.8199314441232569 -1.891357037550289 -0.7979070459457974 -1.162807369839273 -3.069772347930164 -1.711186020564659 -0.5111927360385053 1.723341860908522 2.210236180399446 4 0.507966898179488 1.156310226468161 0.7118152061222369 0.5148671181295031 1.633799723946588 2.137429088754642 2.061770745396351 1.842052415731786 3.6640409366841 1.881337534429318 1:1 2:1 3:1 4:1 5:1 6:1 7:1 8:1 9:1 10:1 11:1 12:1 18:1 19:1 22:1 23:1 29:1 30:1 33:1 34:1 36:1 37:1 38:1 40:1 41:1 42:1 45:1 47:1 48:1 50:1 51:1 52:1 53:1 54:1 56:1 58:1 59:1 61:1 62:1 63:1 64:1 65:1 67:1 69:1 70:1 73:1 74:1 75:1 78:1 80:1 81:1 82:1 88:1 89:1 90:1 91:1 92:1 93:1 94:1 98:1 99:1 100:1 101:1 102:1 103:1 104:1 105:1 106:1 107:1 108:1 109:1 110:1 
-0.69027837966016 -1.659564401563134 -2.334764590698947 -0.5024352955250787 -0.4939530645021347 -1.737096733766228 -0.4772576468561191 0.6058645004921611 0.5149047380961491 0.5263153262143477 0.9217503791270983 1.327171589377778 1.713878561665797 0.509953232166913 0.3510928447807961 0.4980064798281056 0 0 0.5118124951461139 1.481444309033322 1:1 2:1 3:1 4:1 5:1 6:1 7:1 8:1 9:1 10:1 11:1 12:1 18:1 19:1 21:1 22:1 23:1 29:1 30:1 33:1 34:1 36:1 37:1 38:1 40:1 41:1 42:1 45:1 47:1 48:1 50:1 51:1 52:1 53:1 54:1 56:1 58:1 59:1 61:1 62:1 63:1 64:1 67:1 69:1 70:1 73:1 74:1 75:1 78:1 80:1 81:1 82:1 88:1 89:1 91:1 92:1 93:1 94:1 98:1 99:1 
-0 -0 -0 -0 -0 -0 -2.231899677430111 0 0 0 0 0 0 0 0 0 0 0 0 0 1:1 2:1 3:1 4:1 5:1 6:1 7:1 8:1 9:1 10:1 11:1 12:1 18:1 19:1 21:1 22:1 23:1 29:1 30:1 33:1 34:1 36:1 37:1 38:1 40:1 41:1 42:1 45:1 47:1 48:1 50:1 51:1 52:1 53:1 54:1 56:1 58:1 59:1 61:1 62:1 63:1 64:1 65:1 67:1 69:1 70:1 73:1 74:1 75:1 78:1 80:1 81:1 82:1 88:1 89:1 90:1 91:1 92:1 93:1 94:1 98:1 99:1 
-2.606470461195801 -0 -0.7385246538078583 -0.08995463934806322 -1.419344771870764 -0 -2.032184190351034 0.8430435301924523 0.7788304896039903 1.222489039160807 1.115878988220801 0 0.08402032487851942 0.8735350759361219 0 1.494090971327252 0 0 1.243438151252977 0 1:1 2:1 3:1 4:1 5:1 6:1 7:1 8:1 9:1 10:1 11:1 12:1 18:1 19:1 21:1 22:1 23:1 29:1 30:1 33:1 34:1 36:1 37:1 38:1 40:1 41:1 42:1 45:1 47:1 48:1 50:1 51:1 52:1 53:1 54:1 56:1 58:1 59:1 61:1 62:1 63:1 64:1 65:1 67:1 69:1 70:1 73:1 74:1 75:1 78:1 80:1 81:1 82:1 88:1 89:1 90:1 91:1 92:1 93:1 94:1 98:1 99:1 
-0.437932063671336 -0 -0.4497087609573613 -0.5010577879568825 -0.4845092163937901 -0 -0.490977519972855 0.5939334061641423 0.5103140153036154 0.5210098544929194 0.5104171618012165 0.0913056357096821 0.4831150271535638 0.5298404018248343 0.1987301659354813 0.5081822238773548 0 0 0.5055988400980473 0.1086738650415991 1:1 2:1 3:1 4:1 5:1 6:1 7:1 8:1 9:1 10:1 11:1 12:1 18:1 19:1 21:1 22:1 23:1 29:1 30:1 33:1 34:1 36:1 37:1 38:1 40:1 41:1 42:1 45:1 47:1 48:1 50:1 51:1 52:1 53:1 54:1 56:1 58:1 59:1 61:1 62:1 63:1 64:1 65:1 69:1 70:1 73:1 74:1 75:1 78:1 80:1 81:1 82:1 88:1 89:1 90:1 91:1 92:1 93:1 94:1 98:1 99:1 
-4 -1.022692600206485 -2.933800533301953 -0 -2.602545504880155 -0.7845992108081651 -4 -2.446268215715567 1.745323279854856 2.125380856533265 0.4314910715451305 0.6443013319820287 1.31769554382369 1.070081050359885 0 1.959604926449979 4 1.499623069686446 4 0.6971560167703874 1:1 2:1 3:1 4:1 5:1 6:1 7:1 8:1 9:1 10:1 11:1 12:1 13:1 21:1 22:1 23:1 24:1 33:1 34:1 37:1 38:1 39:1 41:1 42:1 45:1 47:1 48:1 49:1 51:1 52:1 53:1 54:1 56:1 58:1 59:1 60:1 62:1 63:1 64:1 65:1 67:1 70:1 71:1 74:1 75:1 78:1 79:1 82:1 83:1 88:1 89:1 90:1 91:1 92:1 93:1 94:1 95:1 98:1 99:1 
-0.9945684435966294 -2.75998744296788 -1.973927325878196 -1.554544086469361 -2.394042112656954 -2.12045681175215 -4 -3.583357170429155 2.049820559440805 3.211987615939803 1.730743152183887 1.416481018992365 1.584372583851487 2.176067410612947 2.429371085656434 4 0.6464409652726041 2.047167153308663 1.170484914815749 2.230918035954622 1:1 2:1 3:1 4:1 5:1 6:1 7:1 8:1 9:1 10:1 11:1 12:1 13:1 14:1 21:1 22:1 23:1 24:1 33:1 34:1 37:1 38:1 39:1 40:1 41:1 42:1 45:1 47:1 48:1 49:1 50:1 51:1 52:1 53:1 54:1 58:1 59:1 60:1 61:1 62:1 63:1 64:1 65:1 67:1 69:1 70:1 71:1 72:1 74:1 75:1 76:1 78:1 81:1 82:1 89:1 90:1 92:1 93:1 94:1 99:1 
-0.4463380724074804 -0.4384292699426091 -0.3136451116778065 -0.4728967852206055 -0.4500459858917654 -0.4562672257770985 -0.4425919543244503 -0.4097349845453336 0.432590945348642 0.4102751467248353 0.4266436250476586 0.4664848261559726 0.4439041178326377 0.3546998321891412 1.225579097929646 0.446535793075328 0.497064886576269 1.188738133422738 0.6990380046470651 0.4705329413428404 1:1 2:1 3:1 4:1 5:1 7:1 8:1 9:1 10:1 11:1 12:1 13:1 14:1 21:1 22:1 23:1 24:1 33:1 34:1 37:1 38:1 39:1 41:1 42:1 45:1 47:1 48:1 49:1 51:1 52:1 53:1 54:1 56:1 58:1 59:1 60:1 62:1 63:1 64:1 65:1 67:1 70:1 71:1 74:1 75:1 78:1 79:1 82:1 83:1 88:1 89:1 90:1 91:1 92:1 93:1 94:1 95:1 98:1 99:1 100:1 101:1 102:1 103:1 104:1 105:1 106:1 107:1 108:1 109:1 110:1 
-0.08844168346968648 -1.029653755080137 -0 -0.8415599038975972 -1.344819893270039 -0.6971441479186018 -0.8501620422238587 -1.059423465403664 1.031612949958782 2.994696083632896 0 0.8715853337949824 0.1060404733339236 0 0.4449397645294605 3.695236431184203 4 0 4 0.8141150205194386 1:1 2:1 3:1 4:1 5:1 6:1 7:1 8:1 9:1 10:1 11:1 12:1 13:1 14:1 21:1 22:1 23:1 24:1 33:1 34:1 37:1 38:1 39:1 41:1 42:1 45:1 47:1 48:1 49:1 51:1 52:1 53:1 54:1 56:1 58:1 59:1 60:1 62:1 63:1 64:1 65:1 67:1 70:1 71:1 74:1 75:1 78:1 79:1 82:1 83:1 88:1 89:1 90:1 91:1 92:1 93:1 94:1 95:1 98:1 99:1 100:1 101:1 102:1 103:1 104:1 105:1 106:1 107:1 108:1 109:1 110:1 
-0.2820798056280912 -0 -0 -1.165947029437079 -0 -0 -4 -0 0 0 1.808177237241724 0 0 3.887996343426462 0.5665385500225525 0 3.656994824720655 0 0 0 1:1 2:1 3:1 4:1 5:1 6:1 7:1 8:1 9:1 10:1 11:1 12:1 13:1 14:1 21:1 22:1 23:1 24:1 33:1 34:1 37:1 38:1 39:1 41:1 42:1 45:1 47:1 48:1 49:1 51:1 52:1 53:1 54:1 56:1 58:1 59:1 60:1 62:1 63:1 64:1 65:1 67:1 70:1 71:1 74:1 75:1 78:1 79:1 82:1 88:1 89:1 90:1 91:1 92:1 93:1 94:1 95:1 98:1 99:1 
-0 -0 -4 -0 -0 -0 -0 -0 -0 0 0 0 0 0 0 0 0 0 0 0 1:1 2:1 3:1 4:1 5:1 6:1 7:1 8:1 9:1 10:1 11:1 12:1 23:1 34:1 36:1 37:1 38:1 40:1 41:1 42:1 43:1 44:1 45:1 47:1 48:1 49:1 51:1 52:1 53:1 54:1 55:1 56:1 58:1 59:1 60:1 62:1 63:1 64:1 65:1 66:1 67:1 69:1 70:1 71:1 73:1 74:1 75:1 76:1 77:1 78:1 84:1 85:1 86:1 87:1 88:1 89:1 90:1 94:1 95:1 96:1 97:1 98:1 99:1 
-0 -0 -4 -0 -0 -0 -0 -0 -0 0 0 0 0 0 0 0 0 0 0 0 1:1 2:1 3:1 4:1 5:1 6:1 7:1 8:1 9:1 10:1 11:1 12:1 23:1 34:1 36:1 37:1 38:1 40:1 41:1 42:1 43:1 44:1 45:1 47:1 48:1 49:1 51:1 52:1 53:1 54:1 55:1 56:1 58:1 59:1 60:1 62:1 63:1 64:1 65:1 66:1 67:1 69:1 70:1 71:1 73:1 74:1 75:1 76:1 77:1 78:1 84:1 85:1 86:1 87:1 88:1 89:1 90:1 94:1 95:1 96:1 97:1 98:1 99:1 
-0.4679574418934403 -3.257161607780861 -0.5157569841958057 -1.380996476156292 -4 -2.003350604031815 -0.4851935759167419 -2.002068531308444 -1.628611123478156 2.363732249085953 0.395441142982368 1.069547933321336 0.5058940537662805 0.4778607634419548 1.533737705762047 2.270972238380621 1.772668903794018 4 3.16844039227561 2.281661415561981 1:1 2:1 3:1 4:1 5:1 6:1 7:1 8:1 9:1 10:1 11:1 12:1 23:1 34:1 36:1 37:1 38:1 40:1 41:1 42:1 43:1 44:1 45:1 47:1 48:1 49:1 51:1 52:1 53:1 54:1 55:1 56:1 58:1 59:1 60:1 62:1 63:1 64:1 65:1 66:1 67:1 69:1 70:1 71:1 73:1 74:1 75:1 76:1 77:1 78:1 84:1 85:1 86:1 87:1 88:1 89:1 90:1 94:1 95:1 96:1 97:1 98:1 99:1 100:1 101:1 102:1 103:1 104:1 105:1 106:1 107:1 108:1 109:1 110:1 
-0 -1.130182492546144 -4 -0.3266198725352838 -1.416282432797435 -1.013564656884562 -0 -0 -0 0 0 0 1.312513301090349 0 0.7259105402755551 0 0 3.501489198894739 0 0 1:1 2:1 3:1 4:1 5:1 6:1 7:1 8:1 9:1 10:1 11:1 12:1 23:1 34:1 36:1 37:1 38:1 40:1 41:1 42:1 43:1 44:1 45:1 47:1 48:1 49:1 51:1 52:1 53:1 54:1 55:1 56:1 58:1 59:1 60:1 62:1 63:1 64:1 65:1 66:1 67:1 69:1 70:1 71:1 73:1 74:1 75:1 76:1 77:1 78:1 84:1 85:1 86:1 87:1 88:1 89:1 90:1 94:1 95:1 96:1 97:1 98:1 99:1 
-3.135042425417848 -1.439276435844173 -0.6611516186548848 -0.5013511078388828 -4 -0.5036328750339373 -3.631007628488391 -1.510942588539956 -3.544428189946978 4 2.322264971726519 1.086925022340489 0.4958687737202784 2.951518769781748 0.5166157360120824 3.265320007457893 2.588582650045443 0.587294111046598 4 0.4826440485547672 1:1 2:1 3:1 4:1 5:1 6:1 7:1 8:1 9:1 10:1 11:1 12:1 23:1 34:1 36:1 37:1 38:1 40:1 41:1 42:1 43:1 45:1 47:1 48:1 49:1 51:1 52:1 53:1 54:1 55:1 56:1 58:1 59:1 60:1 62:1 63:1 64:1 65:1 66:1 67:1 69:1 70:1 71:1 73:1 74:1 75:1 76:1 77:1 78:1 84:1 85:1 86:1 87:1 88:1 89:1 90:1 94:1 95:1 96:1 97:1 98:1 99:1 
-0.2672762464837282 -0.5114139384361368 -0.9487600844382421 -0.5068045925619986 -0.4959921644751871 -0.509145849080003 -0.3254384888448467 -1.003886479445442 -0.08630842117795165 0.3931981659731253 1.381092608767799 0.792908962221562 2.783209003717322 0.3066797710488935 0.5216632405575726 0 0 0.5712357458667645 0.05196950538606385 2.067516683235393 1:1 2:1 3:1 4:1 5:1 6:1 7:1 8:1 9:1 10:1 11:1 12:1 23:1 34:1 36:1 37:1 38:1 40:1 41:1 43:1 44:1 45:1 47:1 48:1 49:1 51:1 52:1 53:1 54:1 55:1 56:1 58:1 59:1 62:1 63:1 64:1 65:1 66:1 67:1 69:1 70:1 71:1 73:1 74:1 75:1 76:1 77:1 78:1 84:1 85:1 86:1 87:1 88:1 89:1 90:1 94:1 95:1 96:1 97:1 98:1 99:1 
-0.240704154997413 -1.420753665466216 -0.6611516186548847 -0.501351107838882 -0.5005881317645281 -0.5036328750339408 -0.1067478724882047 -0 -0 0.2619393215456824 0 0 0.5187704574983092 0.1235210025659517 0.5130640098455759 0 0 2.111528250278979 0 0.02033491393357485 1:1 2:1 4:1 5:1 6:1 7:1 8:1 9:1 10:1 11:1 12:1 23:1 34:1 36:1 37:1 38:1 40:1 41:1 42:1 43:1 44:1 45:1 47:1 48:1 49:1 51:1 52:1 53:1 54:1 55:1 56:1 58:1 59:1 60:1 62:1 63:1 64:1 65:1 66:1 67:1 69:1 70:1 71:1 73:1 74:1 75:1 76:1 77:1 78:1 84:1 85:1 86:1 87:1 88:1 89:1 90:1 94:1 95:1 96:1 97:1 98:1 99:1 
-0 -0 -0 -0 -0 -0.1957622288096057 -0 -0 -0 -0.02466050632190545 0 0.1482530493248024 0 0 0 0.1579474699266558 0 0.004491014321584536 0 0.03070169605835038 1:1 2:1 3:1 4:1 5:1 6:1 7:1 8:1 9:1 10:1 12:1 23:1 34:1 36:1 37:1 38:1 39:1 40:1 41:1 42:1 43:1 45:1 47:1 48:1 49:1 50:1 51:1 52:1 53:1 54:1 56:1 58:1 59:1 60:1 61:1 62:1 63:1 64:1 65:1 67:1 70:1 71:1 72:1 73:1 74:1 75:1 78:1 79:1 88:1 89:1 90:1 91:1 98:1 99:1 100:1 101:1 102:1 103:1 104:1 105:1 106:1 107:1 108:1 109:1 110:1 
-1.114818836704324 -2.577189720542196 -0.7256698841974846 -1.216848662531338 -2.674575885475591 -1.624886385963109 -1.288928065593753 -1.233948062689779 -4 -2.182381408093452 1.151881105959113 0.9299535391658148 0.4388350299439252 1.308609622335161 1.623535613546179 1.874828856793253 3.529620509968152 1.672957824044012 4 1.960076428400246 1:1 2:1 3:1 4:1 5:1 6:1 7:1 8:1 9:1 10:1 11:1 12:1 23:1 34:1 37:1 38:1 39:1 40:1 41:1 42:1 43:1 45:1 47:1 48:1 49:1 50:1 51:1 52:1 53:1 54:1 56:1 58:1 59:1 60:1 61:1 62:1 63:1 64:1 65:1 67:1 70:1 71:1 74:1 75:1 78:1 79:1 88:1 89:1 90:1 91:1 98:1 99:1 100:1 101:1 102:1 103:1 104:1 105:1 106:1 107:1 108:1 109:1 110:1 
-0.352191985760124 -0 -0 -0 -0 -0 -0.367616805282674 -0 -0.4140362405305603 -0 0.6013414832208063 0 0.06368183841334492 0.2046401552725332 0 0 0 0 0.0826979701821744 0 1:1 3:1 4:1 5:1 6:1 7:1 8:1 9:1 10:1 11:1 12:1 23:1 34:1 36:1 37:1 38:1 39:1 40:1 41:1 42:1 43:1 45:1 47:1 48:1 49:1 50:1 51:1 52:1 53:1 54:1 56:1 58:1 59:1 60:1 61:1 62:1 63:1 64:1 65:1 67:1 70:1 71:1 72:1 73:1 74:1 75:1 78:1 79:1 88:1 89:1 90:1 91:1 98:1 99:1 
-0.3521919857601168 -2.237800457341786 -0.4255510514026021 -0 -0 -3.33038215561812 -4 -0 -3.102346480479869 -2.398380063464971 0.5797654825447673 0 2.665752951666515 0.2197331543830424 0 3.637216129167622 0 1.854762040605986 0.1155867561091284 1.684552169544047 1:1 2:1 3:1 4:1 5:1 6:1 7:1 8:1 9:1 10:1 11:1 12:1 23:1 34:1 36:1 37:1 38:1 39:1 40:1 41:1 42:1 43:1 45:1 47:1 48:1 49:1 50:1 51:1 52:1 53:1 54:1 56:1 58:1 59:1 60:1 61:1 62:1 63:1 64:1 65:1 67:1 70:1 71:1 72:1 73:1 74:1 75:1 78:1 79:1 88:1 89:1 90:1 98:1 99:1 
-0 -0 -0 -0.3246115538939868 -0 -0.0391088281400366 -0 -2.718801906204422 -0 -0.01848780732259205 0 0.1482530493248023 0.3005752796534313 0 0 0.165133330685951 0 0.00577633506350662 4 0.03130048894078252 1:1 2:1 3:1 4:1 5:1 6:1 7:1 8:1 9:1 10:1 11:1 12:1 23:1 34:1 36:1 37:1 38:1 39:1 40:1 41:1 42:1 43:1 45:1 47:1 48:1 49:1 50:1 51:1 52:1 53:1 54:1 56:1 58:1 59:1 60:1 61:1 62:1 63:1 64:1 65:1 67:1 70:1 72:1 73:1 74:1 75:1 78:1 79:1 88:1 89:1 90:1 91:1 98:1 99:1 100:1 101:1 102:1 103:1 104:1 105:1 106:1 107:1 108:1 109:1 110:1 
-2.165308924029846 -2.237965824295626 -3.656626519809577 -0.9877847955902027 -3.716425916179917 -0 -0.367616805282674 -2.832461814074704 -0.4059603706449099 -2.39495995140184 0.57976548254476 0 0.06176650109316968 4 0 0 2.815935029042035 1.850907428531224 4 0 1:1 2:1 3:1 4:1 5:1 6:1 7:1 8:1 9:1 10:1 11:1 12:1 23:1 34:1 36:1 37:1 38:1 40:1 41:1 42:1 43:1 45:1 47:1 48:1 49:1 50:1 51:1 52:1 53:1 54:1 56:1 58:1 59:1 60:1 61:1 62:1 63:1 64:1 65:1 67:1 70:1 71:1 72:1 73:1 74:1 75:1 78:1 79:1 88:1 89:1 90:1 91:1 98:1 99:1 
-0.3521919857601234 -0 -0 -1.005312558594707 -0 -0 -0.3528136323303254 -0 -0.4140362405305594 -0 0.5797654825447672 0 0.06176650109317099 0.9819435512860915 1.907469457092247 0 0 0 1.930367517379171 1.684288781571729 1:1 2:1 3:1 4:1 5:1 6:1 7:1 8:1 9:1 10:1 11:1 12:1 23:1 34:1 36:1 37:1 38:1 39:1 40:1 41:1 42:1 43:1 45:1 47:1 48:1 49:1 50:1 51:1 52:1 53:1 54:1 56:1 58:1 59:1 60:1 61:1 62:1 63:1 64:1 65:1 67:1 71:1 72:1 73:1 74:1 75:1 78:1 79:1 88:1 89:1 90:1 91:1 98:1 99:1 
-1.163623138953378 -0 -0.1985108741676823 -0 -0 -0 -0.3420381192357885 -0 -0.4059603706449 -0 0.5847975076374854 1.556508817781827 0.0795258242538055 0.216779395828158 1.908658463972032 0 0 0 0.1358980360812589 0 1:1 2:1 3:1 4:1 5:1 6:1 7:1 8:1 9:1 10:1 11:1 12:1 23:1 34:1 36:1 37:1 38:1 39:1 40:1 41:1 42:1 43:1 45:1 48:1 49:1 50:1 51:1 52:1 53:1 54:1 56:1 58:1 59:1 60:1 61:1 62:1 63:1 64:1 65:1 67:1 70:1 71:1 72:1 73:1 74:1 75:1 78:1 79:1 88:1 89:1 90:1 91:1 98:1 99:1 
-0 -0 -0 -0 -0 -0 -0.1748911662531891 -0 -0.1557557305071169 -0 -0 3.558163023480777 0 0.1960437450879475 0.06865575228641176 0.1673080723365836 0.1685428210210492 0 0 0 1:1 2:1 3:1 4:1 5:1 6:1 7:1 8:1 9:1 10:1 11:1 12:1 13:1 14:1 16:1 17:1 18:1 19:1 20:1 21:1 23:1 24:1 27:1 28:1 29:1 30:1 31:1 34:1 37:1 38:1 39:1 40:1 41:1 45:1 47:1 48:1 49:1 50:1 51:1 54:1 56:1 58:1 59:1 60:1 61:1 65:1 67:1 70:1 71:1 74:1 75:1 76:1 78:1 79:1 84:1 85:1 86:1 87:1 89:1 90:1 91:1 94:1 95:1 96:1 97:1 98:1 
-0 -0 -0 -1.095307891086644 -0 -0.5076194790874804 -0.1746220366180511 -0 -0.158503682924748 -0 -0 0.1775366519242331 0 0.1960437450879476 2.29086189283923 0.1808859500100098 0.186007314339324 1.435608275205427 0 0 1:1 2:1 3:1 4:1 5:1 6:1 7:1 8:1 9:1 10:1 11:1 12:1 13:1 14:1 16:1 17:1 18:1 19:1 20:1 21:1 23:1 24:1 27:1 28:1 29:1 30:1 31:1 34:1 37:1 38:1 39:1 40:1 41:1 45:1 47:1 48:1 49:1 50:1 51:1 54:1 56:1 58:1 59:1 60:1 61:1 64:1 65:1 67:1 70:1 71:1 75:1 76:1 78:1 79:1 84:1 85:1 86:1 87:1 89:1 90:1 91:1 94:1 95:1 96:1 97:1 98:1 
-0 -1.25207957704769 -1.371892819424076 -1.080243878633925 -2.613022459139672 -0.4928319938488511 -3.169244539958097 -1.172780570899524 -1.427045499420158 -2.555590813261398 -0 0.1775366519242322 3.09254313140113 0.1878510542151745 0.04978779167610001 3.614783002401989 0.186007314339326 1.431557954989038 0 1.169551248842883 1:1 2:1 3:1 4:1 5:1 6:1 7:1 8:1 9:1 10:1 11:1 12:1 13:1 14:1 16:1 17:1 18:1 19:1 20:1 21:1 23:1 24:1 27:1 28:1 29:1 30:1 31:1 34:1 37:1 38:1 39:1 40:1 41:1 45:1 47:1 48:1 49:1 50:1 51:1 54:1 56:1 58:1 59:1 60:1 61:1 64:1 65:1 67:1 70:1 71:1 74:1 75:1 76:1 78:1 84:1 85:1 86:1 87:1 89:1 90:1 91:1 94:1 95:1 96:1 97:1 98:1 
-1.781378844945959 -1.970000517168016 -2.230976891214822 -0 -1.556360589831413 -1.441291417097375 -0.3406369316116961 -1.193917787444397 -0.525262411263693 -1.543207910215288 -1.544052438291025 0.3531539837082948 1.819797087386784 0.644757857928436 0.2931174327980853 0.3539988320501943 0.3633078064642395 0.9828766604164275 1.426714334209955 1.796931558647641 1:1 2:1 3:1 4:1 5:1 6:1 7:1 8:1 9:1 10:1 11:1 12:1 13:1 16:1 17:1 18:1 19:1 20:1 21:1 23:1 24:1 27:1 28:1 29:1 30:1 31:1 34:1 37:1 38:1 39:1 40:1 41:1 45:1 47:1 48:1 49:1 50:1 51:1 54:1 56:1 58:1 59:1 60:1 61:1 64:1 65:1 67:1 70:1 71:1 74:1 75:1 76:1 78:1 79:1 84:1 85:1 86:1 87:1 89:1 91:1 94:1 95:1 96:1 97:1 98:1 
-3.068157053686704 -0 -0 -1.095307891086629 -0 -0.485908254039759 -0.1668201453357628 -1.17278057089953 -2.130487761902684 -0 -2.533264106160675 0.1787855088519226 0 4 0.6040106187751763 0.1703085758950523 3.525139157228822 0 2.331134816324933 0 1:1 2:1 3:1 4:1 5:1 6:1 7:1 8:1 9:1 10:1 11:1 12:1 13:1 14:1 16:1 17:1 18:1 19:1 20:1 21:1 23:1 24:1 27:1 28:1 29:1 30:1 31:1 34:1 37:1 38:1 39:1 40:1 41:1 45:1 47:1 48:1 49:1 50:1 51:1 54:1 56:1 58:1 59:1 60:1 61:1 64:1 65:1 67:1 70:1 71:1 74:1 75:1 78:1 79:1 84:1 85:1 86:1 87:1 89:1 90:1 91:1 94:1 95:1 96:1 97:1 98:1 
-0.5006143551042965 -0 -0 -0.5842351997091435 -0 -0.5633512532684264 -0 -0 -0 -0 -0 -0 0.3287087991225603 0 0 0 0 0.1316926282021022 0 0 1:1 2:1 3:1 4:1 5:1 6:1 7:1 8:1 9:1 10:1 11:1 12:1 13:1 14:1 15:1 16:1 17:1 18:1 19:1 20:1 21:1 22:1 23:1 24:1 25:1 27:1 28:1 29:1 30:1 31:1 32:1 34:1 35:1 38:1 39:1 40:1 41:1 42:1 43:1 45:1 56:1 67:1 68:1 69:1 70:1 71:1 72:1 73:1 74:1 76:1 78:1 79:1 80:1 81:1 82:1 83:1 84:1 85:1 86:1 87:1 89:1 90:1 91:1 92:1 93:1 94:1 95:1 96:1 97:1 98:1 99:1 
-1.604832968963627 -0 -0.7626229353562267 -0.9725638959868305 -0.7082253890964948 -0 -1.038369706809407 -0.7821141352191412 -1.308415491225373 -0.5840734511907821 -0.7131862015173497 -1.020370639364629 1.637300159488307 1.60211887518993 0.362719956992508 0.8515855999118233 1.449634036410717 1.174051380766491 0.5391349972055259 0 1:1 2:1 3:1 4:1 5:1 6:1 7:1 8:1 9:1 10:1 11:1 12:1 13:1 14:1 15:1 16:1 17:1 18:1 19:1 20:1 21:1 22:1 23:1 24:1 25:1 27:1 28:1 29:1 30:1 31:1 32:1 34:1 35:1 38:1 39:1 41:1 42:1 43:1 45:1 56:1 67:1 69:1 70:1 71:1 72:1 73:1 74:1 75:1 76:1 78:1 79:1 80:1 81:1 82:1 83:1 84:1 85:1 86:1 87:1 89:1 90:1 91:1 92:1 93:1 94:1 95:1 96:1 97:1 98:1 99:1 
-0.4536376766975757 -0.5317725655401491 -1.03007955797794 -0.5839867112630733 -0.9128351764621653 -0 -0 -0.6452521819366936 -0 -0.6612154226751543 -0 -0 0.3459809217488968 0.5973418090987861 0.1254192726746387 0 0.3292134683578393 0.1473179580748422 0.5735203675332029 0 1:1 2:1 3:1 4:1 5:1 6:1 7:1 8:1 9:1 10:1 11:1 12:1 13:1 14:1 15:1 16:1 17:1 18:1 19:1 20:1 21:1 22:1 23:1 24:1 25:1 27:1 28:1 29:1 30:1 31:1 32:1 34:1 35:1 38:1 40:1 41:1 42:1 43:1 45:1 56:1 67:1 68:1 69:1 70:1 71:1 72:1 73:1 74:1 75:1 76:1 78:1 79:1 80:1 81:1 82:1 83:1 84:1 85:1 86:1 87:1 89:1 90:1 91:1 92:1 93:1 94:1 95:1 96:1 97:1 98:1 99:1 
-0.2406875044783669 -0.5088834278474172 -0 -0 -0 -0.5633512532684219 -0 -0 -0 -0 -0 -1.565236755661477 0.339982112456814 0 1.55005995138308 0 0 0.142239693017866 0 0.8300638878425585 1:1 2:1 3:1 4:1 5:1 6:1 7:1 8:1 9:1 10:1 11:1 12:1 13:1 14:1 15:1 16:1 17:1 18:1 19:1 20:1 21:1 22:1 23:1 24:1 25:1 27:1 28:1 29:1 30:1 31:1 32:1 34:1 35:1 38:1 39:1 40:1 41:1 42:1 43:1 45:1 56:1 67:1 68:1 69:1 70:1 71:1 72:1 73:1 74:1 75:1 76:1 78:1 79:1 80:1 81:1 82:1 83:1 84:1 85:1 86:1 87:1 89:1 90:1 91:1 92:1 93:1 94:1 95:1 96:1 97:1 98:1 
-0.4784279823500991 -1.021394636784007 -0.3641156964787917 -1.010318013639259 -1.185949476973202 -1.085361494461273 -0.4246331886787078 -1.110757211513755 -1.275576094351268 -1.042978600353717 -1.155554782100154 -0.2915941023546757 0.5033293266098909 0.3318124199033365 1.091737812441145 1.402148953307077 1.065309309861406 1.089960928491906 1.135423249062251 1.193038911402485 1:1 2:1 3:1 4:1 5:1 6:1 7:1 8:1 9:1 10:1 11:1 12:1 13:1 14:1 15:1 16:1 17:1 18:1 19:1 20:1 21:1 22:1 23:1 24:1 25:1 27:1 28:1 29:1 30:1 31:1 32:1 34:1 35:1 38:1 39:1 40:1 41:1 42:1 43:1 45:1 56:1 67:1 68:1 69:1 70:1 71:1 72:1 73:1 74:1 75:1 76:1 78:1 79:1 80:1 81:1 82:1 83:1 84:1 85:1 86:1 87:1 89:1 90:1 91:1 92:1 93:1 94:1 95:1 96:1 97:1 98:1 99:1 100:1 101:1 102:1 103:1 104:1 105:1 106:1 107:1 108:1 109:1 110:1 
-0.2419223604370776 -0.5317725655401482 -1.050954524950694 -0 -0.9078757627578087 -0.5739789940304565 -1.581938458310279 -0.6490582152803239 -0.8148609253487082 -0.6611144436637338 -0.9142274719797423 -1.567974322508678 0.3399821124568213 0.6044752290832194 0 1.204950951488154 0.3365497639080339 0.1422396930178641 0.5630356687533253 0.8328845987379241 1:1 2:1 3:1 4:1 5:1 6:1 7:1 8:1 9:1 10:1 11:1 12:1 13:1 14:1 16:1 17:1 18:1 19:1 20:1 21:1 22:1 23:1 24:1 25:1 27:1 28:1 29:1 30:1 31:1 32:1 34:1 35:1 38:1 39:1 40:1 41:1 42:1 43:1 45:1 56:1 67:1 68:1 69:1 70:1 71:1 72:1 73:1 74:1 75:1 76:1 78:1 79:1 80:1 81:1 82:1 83:1 84:1 85:1 86:1 87:1 89:1 90:1 91:1 92:1 93:1 94:1 95:1 96:1 97:1 98:1 99:1 
-2.486918201430732 -0 -0.1587838079775669 -0.2998707273574206 -0.1366007263196778 -0 -0 -0 -0 -0.3340726143114757 -0.4920500905755269 -3.316600078048824 -0.5071513750172024 1.165946467701592 0.2972004643415085 0.3036290887613921 1.156022384986326 0.7822457017961972 0.5148278604249942 0.2381305210913586 1:1 2:1 3:1 4:1 5:1 6:1 7:1 8:1 9:1 10:1 11:1 12:1 14:1 15:1 16:1 17:1 18:1 19:1 20:1 23:1 25:1 26:1 27:1 28:1 29:1 30:1 34:1 36:1 37:1 38:1 39:1 40:1 43:1 44:1 45:1 47:1 48:1 49:1 50:1 53:1 54:1 55:1 56:1 58:1 59:1 60:1 63:1 64:1 65:1 66:1 67:1 70:1 73:1 74:1 75:1 76:1 77:1 78:1 83:1 84:1 85:1 86:1 87:1 88:1 89:1 93:1 94:1 95:1 96:1 97:1 98:1 99:1 
-0 -2.190220755940164 -4 -1.598048670017427 -3.826698553650759 -1.840759081521322 -1.902091507838577 -1.331047652832968 -1.957136806372162 -4 -1.800194455020754 -0 -0.5121809490067669 0.8303281808245695 1.447549799522192 2.750762805892546 0.842907313980838 3.242705623914983 1.940735959426634 1.486314621800052 1:1 2:1 3:1 4:1 5:1 6:1 7:1 8:1 9:1 10:1 11:1 12:1 14:1 15:1 16:1 17:1 18:1 19:1 20:1 23:1 25:1 26:1 27:1 30:1 34:1 36:1 37:1 38:1 39:1 40:1 43:1 44:1 45:1 47:1 48:1 49:1 50:1 53:1 54:1 55:1 56:1 58:1 59:1 60:1 63:1 64:1 65:1 66:1 67:1 69:1 70:1 73:1 74:1 75:1 76:1 77:1 78:1 83:1 84:1 85:1 86:1 87:1 88:1 89:1 93:1 94:1 95:1 96:1 97:1 98:1 99:1 
-0 -0 -0.1549698037755636 -0.29987072735742 -0 -0 -0 -0 -0 -0.3381082875657503 -0 -0 -0.5037215619484421 0 0.2764129764439811 0 0 0 0 0.2381305210913593 1:1 2:1 3:1 4:1 5:1 6:1 7:1 8:1 9:1 10:1 11:1 12:1 14:1 15:1 16:1 17:1 18:1 19:1 20:1 23:1 25:1 26:1 27:1 28:1 29:1 30:1 34:1 36:1 37:1 38:1 39:1 40:1 43:1 44:1 45:1 47:1 48:1 49:1 50:1 53:1 54:1 55:1 56:1 58:1 59:1 60:1 63:1 64:1 65:1 66:1 67:1 69:1 73:1 74:1 75:1 76:1 77:1 78:1 83:1 84:1 85:1 86:1 87:1 88:1 89:1 93:1 94:1 95:1 96:1 97:1 98:1 99:1 
-0 -0 -0.7198048431917718 -0 -0.3472857252429751 -0 -0 -0.2733248357748124 -0 -0.4732887061674584 -0 -1.443370453859657 -1.321063907800512 0 0 0.2886650645476466 0 0.1700563061527811 0 0 3:1 4:1 5:1 6:1 7:1 8:1 9:1 10:1 11:1 12:1 14:1 15:1 16:1 17:1 18:1 19:1 20:1 23:1 25:1 26:1 27:1 28:1 29:1 30:1 34:1 36:1 37:1 38:1 39:1 40:1 43:1 44:1 45:1 47:1 48:1 49:1 50:1 54:1 55:1 56:1 58:1 59:1 60:1 63:1 64:1 65:1 66:1 67:1 69:1 70:1 73:1 74:1 75:1 76:1 77:1 78:1 83:1 84:1 85:1 86:1 87:1 88:1 89:1 93:1 94:1 95:1 96:1 97:1 98:1 99:1 
-0 -0 -0 -0 -0 -0 -0 -0 -0 -0 -0 -0 -0.1376098001387286 0 0 0 0 0 0 0 1:1 2:1 3:1 4:1 5:1 6:1 7:1 8:1 9:1 10:1 11:1 12:1 14:1 15:1 16:1 17:1 18:1 19:1 20:1 23:1 25:1 26:1 27:1 28:1 29:1 30:1 34:1 36:1 37:1 38:1 39:1 40:1 43:1 44:1 45:1 47:1 48:1 49:1 50:1 53:1 54:1 55:1 56:1 58:1 59:1 60:1 63:1 64:1 65:1 66:1 67:1 69:1 70:1 73:1 74:1 75:1 76:1 77:1 78:1 83:1 84:1 85:1 86:1 87:1 88:1 89:1 93:1 94:1 95:1 96:1 97:1 98:1 99:1 
-2.49065273235418 -1.690446548294525 -0.3951679293518745 -1.238593904405901 -0.3348836031294427 -1.403514644116836 -1.440852659281067 -1.8762528590985 -1.494875912469576 -0.4707859817478551 -1.379659380521081 -0.1523696868794336 -0.5135558379716386 1.56125254677251 1.134369487503995 0.2870527253698422 1.577974006901249 0.1670230730690962 1.465085550928946 1.349901026523655 1:1 2:1 3:1 4:1 5:1 6:1 7:1 8:1 9:1 11:1 12:1 14:1 15:1 16:1 17:1 18:1 19:1 20:1 23:1 25:1 26:1 27:1 28:1 29:1 30:1 34:1 36:1 37:1 38:1 39:1 40:1 43:1 44:1 45:1 47:1 48:1 49:1 50:1 53:1 54:1 55:1 56:1 58:1 59:1 60:1 63:1 64:1 65:1 66:1 67:1 69:1 70:1 73:1 74:1 75:1 76:1 77:1 78:1 83:1 84:1 86:1 87:1 88:1 89:1 93:1 94:1 95:1 97:1 98:1 99:1 
-0.4943334114053771 -2.032115117913582 -0.5010584750553798 -2.918456647555925 -1.869756975608056 -1.731804576125718 -2.778496081476857 -0.5173638621153418 -1.472072567890379 -0.5143925238378885 -0.9592468698377276 -2.603028552024054 -1.561680851414762 -0.5184131520908535 3.323632294410751 2.433881067344825 0.7684631287560435 1.792463795618212 1.031228499228965 2.468106446496555 1:1 2:1 3:1 4:1 5:1 6:1 7:1 8:1 9:1 10:1 11:1 12:1 13:1 14:1 17:1 18:1 19:1 20:1 21:1 22:1 23:1 24:1 29:1 30:1 33:1 34:1 37:1 38:1 41:1 42:1 45:1 47:1 48:1 49:1 50:1 52:1 53:1 54:1 56:1 58:1 59:1 60:1 61:1 63:1 64:1 65:1 67:1 71:1 73:1 74:1 75:1 78:1 79:1 89:1 90:1 91:1 98:1 99:1 
-3.503530541496002 -2.03647510207844 -1.633737749368065 -0.5405177756173173 -1.855099789988453 -1.734032548292294 -0.4977640457140211 -3.208590963599737 -1.926331146207837 -1.921596556716354 -3.450978197443578 -0.7445218582711386 -0.5196707030182636 -0.5139920927222033 0.5352357612570336 0.5131610348920798 0.7811796229446664 2.195607460467938 2.578797138982648 1.185451674088249 1:1 2:1 3:1 4:1 5:1 6:1 7:1 8:1 9:1 10:1 11:1 12:1 13:1 17:1 18:1 19:1 20:1 21:1 22:1 23:1 24:1 29:1 30:1 33:1 34:1 37:1 38:1 41:1 42:1 45:1 47:1 48:1 49:1 50:1 52:1 53:1 54:1 58:1 59:1 60:1 61:1 63:1 64:1 65:1 67:1 70:1 71:1 73:1 74:1 75:1 78:1 79:1 88:1 89:1 90:1 91:1 98:1 99:1 
-0 -0 -0 -0 -0 -0 -0 -0 -0.09044092249021789 -0 -0 -0 -0 -0 0 0 1.652432508042119 0 0 0 1:1 2:1 3:1 4:1 5:1 6:1 7:1 8:1 9:1 10:1 11:1 12:1 13:1 14:1 17:1 18:1 19:1 20:1 21:1 22:1 23:1 24:1 29:1 30:1 33:1 34:1 37:1 38:1 41:1 42:1 45:1 47:1 48:1 49:1 50:1 52:1 53:1 54:1 56:1 58:1 59:1 60:1 61:1 63:1 64:1 65:1 67:1 70:1 71:1 73:1 74:1 75:1 78:1 79:1 88:1 89:1 90:1 91:1 98:1 99:1 
-1.491310417690723 -0.03072275253412397 -1.14233077203388 -0 -0.02563448877105714 -0.02515305430797583 -2.298015864753454 -2.702241002342293 -4 -1.423591226284305 -2.521480811823682 -1.877145992024313 -1.054396778842247 -2.525121950485614 0.01970505013373261 1.932220739880753 4 0 1.579147882294097 0 1:1 2:1 3:1 4:1 5:1 6:1 7:1 8:1 9:1 10:1 11:1 12:1 13:1 14:1 17:1 18:1 19:1 20:1 21:1 22:1 23:1 24:1 29:1 30:1 33:1 34:1 37:1 38:1 41:1 42:1 45:1 47:1 48:1 49:1 50:1 52:1 53:1 54:1 56:1 58:1 59:1 60:1 61:1 63:1 64:1 65:1 67:1 70:1 71:1 73:1 74:1 75:1 78:1 79:1 88:1 89:1 90:1 91:1 98:1 99:1 
-0.2428873474431154 -0.9852898350676802 -0.2927768774041463 -0.094978318210133 -0.6426253234062028 -0.01354804799095774 -0.340344946276363 -0.4166395039981984 -0.7416140238126263 -0.7801649120711899 -0.6085844546464569 -0.292431317579341 -0.556381949962084 -0.3373837989782991 -0.1158484242420893 0.7502973901347559 0.3520690910841061 0.9486401762058236 0.2688967722511908 0.8693563389552642 1:1 2:1 3:1 4:1 5:1 6:1 7:1 8:1 9:1 10:1 11:1 12:1 13:1 14:1 15:1 23:1 24:1 25:1 34:1 35:1 38:1 39:1 42:1 43:1 44:1 48:1 49:1 50:1 51:1 53:1 54:1 55:1 56:1 59:1 60:1 61:1 62:1 64:1 65:1 66:1 67:1 68:1 71:1 72:1 73:1 75:1 76:1 77:1 78:1 79:1 80:1 89:1 90:1 91:1 92:1 100:1 101:1 102:1 103:1 104:1 106:1 107:1 108:1 109:1 110:1 
-0.3205776078740872 -2.470792363287698 -2.323202728751153 -0.9961412060150548 -1.631284666759587 -0 -0.4751705428087185 -1.122342096129525 -0.443386499411721 -1.711530620737316 -0.2933346539283478 -1.547128823793121 -0.8663715276148289 -0.4862594963510909 -1.392257732861205 0.4946093666443901 1.243697761832592 1.498079971051023 1.40291612928979 0 1:1 2:1 3:1 4:1 5:1 6:1 7:1 8:1 9:1 10:1 11:1 12:1 13:1 14:1 15:1 23:1 24:1 25:1 34:1 35:1 38:1 40:1 42:1 43:1 44:1 45:1 48:1 49:1 50:1 51:1 54:1 55:1 56:1 59:1 60:1 61:1 62:1 64:1 65:1 66:1 67:1 68:1 71:1 72:1 73:1 75:1 76:1 77:1 78:1 79:1 80:1 89:1 90:1 91:1 92:1 
-0 -0 -0 -0 -0 -0 -2.003814516834975 -0 -0 -0 -0 -0 -0 -0.8805537682315691 -0 0.8399353606680027 0 0 0 0 1:1 2:1 3:1 4:1 5:1 6:1 7:1 8:1 9:1 10:1 11:1 12:1 13:1 14:1 15:1 23:1 24:1 25:1 34:1 35:1 38:1 39:1 40:1 42:1 43:1 44:1 45:1 48:1 49:1 50:1 51:1 53:1 54:1 55:1 56:1 59:1 60:1 61:1 62:1 64:1 65:1 66:1 67:1 68:1 71:1 72:1 73:1 75:1 76:1 77:1 78:1 79:1 80:1 89:1 90:1 91:1 92:1 
-0.1419028099657849 -0.4073660969796843 -0.3577432154812141 -0 -0.3325512114701556 -0 -0.4889634377315769 -0 -1.151710000463709 -0.2712807825852369 -0.05794916791050318 -0.3317264865456399 -0 -0.4865872826037341 -0 0.4952210445996357 0 0.9960246660619282 0 0 1:1 2:1 3:1 4:1 5:1 7:1 8:1 9:1 10:1 11:1 12:1 13:1 14:1 15:1 23:1 24:1 25:1 34:1 35:1 38:1 39:1 40:1 42:1 43:1 44:1 45:1 48:1 49:1 50:1 51:1 53:1 54:1 55:1 56:1 59:1 60:1 61:1 62:1 64:1 65:1 66:1 67:1 68:1 71:1 72:1 73:1 75:1 76:1 77:1 78:1 79:1 80:1 89:1 90:1 91:1 92:1 
-0.2884931422306834 -0.9903285079371323 -0.2477110947347013 -1.493392311733156 -0.6426790372286874 -1.330394717291429 -0.209696726530213 -1.238739693092918 -1.172340908789145 -0.7715968755881389 -1.151132923114706 -0.2385543657818178 -0.560247049243454 -0.2123469100707003 -0.645059072447385 0.7514540383073487 1.14460209115765 0.9590613698508352 1.023402243579962 0.9797619841334106 1:1 2:1 3:1 4:1 5:1 6:1 7:1 8:1 9:1 10:1 11:1 12:1 13:1 14:1 15:1 23:1 24:1 25:1 34:1 35:1 38:1 39:1 42:1 43:1 44:1 45:1 48:1 49:1 50:1 51:1 53:1 54:1 55:1 56:1 59:1 60:1 61:1 62:1 64:1 65:1 66:1 67:1 68:1 71:1 72:1 73:1 75:1 77:1 78:1 79:1 80:1 89:1 90:1 91:1 92:1 100:1 101:1 102:1 103:1 104:1 105:1 106:1 108:1 109:1 110:1 
-0.1441666109360282 -0.3991161224173179 -0.3479937629247057 -1.481801455286102 -0.3372340638558957 -2.566183869835541 -0.4639526203530233 -0 -0.3449824641414153 -0.2764180414709513 -0.07285086978231364 -0.3281793907215195 -1.146936466671004 -0.4785173911164616 -0 0.4995146826876148 0 0 0 3.346159915866562 1:1 2:1 3:1 4:1 5:1 6:1 7:1 8:1 9:1 10:1 11:1 12:1 13:1 14:1 15:1 23:1 24:1 25:1 34:1 35:1 38:1 39:1 40:1 42:1 43:1 44:1 45:1 49:1 50:1 51:1 53:1 54:1 55:1 56:1 59:1 60:1 61:1 62:1 64:1 65:1 66:1 67:1 68:1 71:1 72:1 73:1 75:1 76:1 77:1 78:1 79:1 80:1 89:1 90:1 91:1 92:1 
-2.026526687905904 -0 -0.1046618630797428 -0.1393617374150483 -0 -1.369237535932998 -0.286175286681437 -0.6250162961460605 -0.8123946015194774 -0 -3.255811465228132 -0.5684131039535647 -0 -0.2738840804598222 -1.725407876250838 0 0.9563073910666881 0 1.377830387056498 0 1:1 2:1 3:1 4:1 5:1 6:1 7:1 8:1 9:1 10:1 11:1 12:1 13:1 14:1 15:1 23:1 24:1 25:1 34:1 35:1 38:1 39:1 40:1 42:1 43:1 44:1 45:1 48:1 49:1 50:1 51:1 53:1 54:1 55:1 56:1 59:1 60:1 61:1 62:1 64:1 65:1 66:1 67:1 68:1 71:1 72:1 73:1 75:1 77:1 78:1 79:1 80:1 89:1 90:1 91:1 92:1 
-0.2687934442767304 -0.5151423263025712 -0.4870916262067763 -0 -0.504860629420857 -0.4881546306739882 -1.996423267852308 -0.5086846062324534 -0.5393272506171446 -0.4945103730875193 -0 -0.271576318412827 -0.4954421281669286 -0.4772604693232364 -0.3749473857307501 -0 0 1.076176150116303 0 0 1:1 2:1 3:1 4:1 5:1 6:1 7:1 8:1 9:1 10:1 11:1 12:1 13:1 14:1 21:1 22:1 23:1 24:1 33:1 37:1 38:1 39:1 40:1 41:1 42:1 45:1 47:1 48:1 49:1 50:1 51:1 52:1 53:1 54:1 56:1 58:1 59:1 60:1 61:1 62:1 63:1 64:1 65:1 67:1 69:1 70:1 71:1 72:1 73:1 74:1 75:1 76:1 78:1 81:1 82:1 83:1 84:1 85:1 86:1 89:1 90:1 93:1 94:1 95:1 96:1 99:1 
-0 -0.1807898087066432 -0 -0.04115573914761989 -0 -0.04970446154877166 -0.007194298128776415 -0 -0.6078238590201284 -0.08504202107782402 -0.01637385026214859 -0 -0.2558292860074375 -0.001853673031786793 -0 -0.0209616126366087 0 0 0 0 1:1 2:1 3:1 4:1 5:1 6:1 7:1 8:1 9:1 10:1 11:1 12:1 13:1 14:1 21:1 22:1 23:1 24:1 33:1 34:1 37:1 38:1 39:1 40:1 41:1 42:1 45:1 47:1 48:1 49:1 50:1 51:1 52:1 53:1 54:1 56:1 58:1 59:1 60:1 61:1 62:1 63:1 64:1 65:1 67:1 69:1 70:1 71:1 72:1 73:1 74:1 75:1 76:1 78:1 81:1 82:1 83:1 84:1 85:1 86:1 89:1 90:1 93:1 94:1 95:1 96:1 99:1 100:1 101:1 102:1 103:1 104:1 105:1 106:1 107:1 108:1 109:1 110:1 
-0 -0 -0 -0 -0 -0 -4 -0 -0 -0 -0 -0 -0 -0 -0 -0 0 0 0 0 1:1 2:1 3:1 4:1 5:1 6:1 7:1 8:1 9:1 10:1 11:1 12:1 13:1 14:1 21:1 22:1 23:1 24:1 33:1 34:1 37:1 38:1 39:1 40:1 41:1 42:1 45:1 47:1 48:1 49:1 50:1 51:1 52:1 53:1 54:1 56:1 58:1 59:1 60:1 61:1 62:1 63:1 64:1 65:1 67:1 69:1 70:1 71:1 72:1 73:1 74:1 75:1 76:1 78:1 81:1 82:1 83:1 84:1 85:1 86:1 89:1 90:1 93:1 94:1 95:1 96:1 99:1 
-3.142573366689811 -0.50814078625153 -0.4835872764880402 -2.061094420576173 -1.419490577422521 -1.253442896292259 -1.996423267852303 -0.5109996714084475 -4 -0.5033632284158891 -3.672885770649473 -3.72807956467773 -0.4975609281020342 -0.6892968011014535 -4 -2.402385259149779 3.67100189045074 1.744715640736588 2.982757978007705 2.08026951753578 1:1 2:1 3:1 4:1 5:1 6:1 7:1 8:1 9:1 10:1 11:1 12:1 13:1 14:1 21:1 22:1 23:1 24:1 33:1 34:1 37:1 38:1 39:1 40:1 41:1 42:1 45:1 47:1 48:1 49:1 50:1 51:1 52:1 53:1 54:1 56:1 58:1 59:1 60:1 61:1 62:1 63:1 64:1 65:1 67:1 70:1 71:1 72:1 73:1 74:1 75:1 76:1 78:1 81:1 82:1 83:1 84:1 85:1 86:1 89:1 90:1 93:1 94:1 95:1 96:1 99:1 
-0 -0 -1.188882072965675 -0 -0 -0 -4 -0 -0 -0 -0 -0 -0 -0 -0 -0 0 0 0 0 1:1 2:1 3:1 4:1 5:1 6:1 7:1 8:1 9:1 10:1 11:1 12:1 13:1 14:1 21:1 22:1 23:1 24:1 33:1 34:1 37:1 38:1 39:1 40:1 41:1 42:1 45:1 47:1 48:1 49:1 50:1 51:1 52:1 53:1 54:1 56:1 58:1 59:1 60:1 61:1 62:1 63:1 64:1 65:1 67:1 69:1 70:1 71:1 72:1 73:1 74:1 75:1 76:1 78:1 81:1 82:1 83:1 84:1 85:1 86:1 89:1 90:1 93:1 94:1 95:1 96:1 99:1 
-0 -1.515924061603254 -2.642185913726165 -0 -1.591596168143223 -0.2081706431618913 -4 -1.907176971818551 -1.438083394272933 -2.186492279953596 -0 -0 -0.9700111522595319 -1.950982316631611 -0 -0 0 0 0 0 1:1 2:1 3:1 4:1 5:1 6:1 7:1 8:1 9:1 10:1 11:1 12:1 13:1 14:1 21:1 22:1 23:1 24:1 33:1 34:1 37:1 38:1 39:1 40:1 41:1 42:1 45:1 47:1 48:1 49:1 50:1 51:1 52:1 53:1 54:1 56:1 58:1 59:1 60:1 61:1 62:1 63:1 64:1 65:1 67:1 69:1 70:1 71:1 72:1 73:1 74:1 75:1 76:1 78:1 81:1 82:1 83:1 84:1 85:1 86:1 89:1 90:1 93:1 94:1 95:1 96:1 99:1 
-0.4851411294863221 -1.561981410451189 -0.5048866276336773 -1.119973057229823 -3.468116026964159 -1.536042236858693 -0.6376215906134995 -2.221369466598748 -3.516142646799303 -2.266884343303686 -2.14586616566186 -0.4876285496032727 -1.239842010171122 -0.5107164244833393 -0.5043154563869072 -1.40768501125536 2.060986581401674 1.896623682459144 2.163563614520654 1.64162199288169 1:1 2:1 3:1 4:1 5:1 6:1 7:1 8:1 9:1 10:1 11:1 12:1 13:1 14:1 21:1 22:1 23:1 24:1 33:1 34:1 37:1 38:1 39:1 40:1 41:1 42:1 45:1 47:1 48:1 49:1 50:1 51:1 52:1 53:1 54:1 56:1 58:1 59:1 60:1 61:1 62:1 63:1 64:1 65:1 67:1 69:1 70:1 71:1 72:1 73:1 74:1 75:1 76:1 78:1 81:1 82:1 83:1 84:1 85:1 86:1 89:1 90:1 93:1 94:1 95:1 96:1 99:1 100:1 101:1 102:1 103:1 104:1 105:1 106:1 107:1 108:1 109:1 110:1 
-0 -0 -0 -0 -0 -0 -0 -0 -4 -0 -0 -0 -0 -0 -0 -0 -0 0 0 0 1:1 2:1 3:1 4:1 5:1 6:1 7:1 8:1 9:1 10:1 11:1 12:1 13:1 14:1 16:1 17:1 18:1 21:1 22:1 23:1 24:1 28:1 33:1 34:1 37:1 41:1 42:1 45:1 47:1 48:1 49:1 51:1 52:1 53:1 54:1 56:1 58:1 59:1 60:1 62:1 63:1 64:1 65:1 67:1 70:1 74:1 75:1 78:1 79:1 83:1 88:1 89:1 90:1 91:1 93:1 94:1 95:1 98:1 99:1 
-0.4686665612240505 -0 -0.0620652631774738 -0.04800697477951867 -0 -0 -0 -0 -2.192094394918179 -0 -0 -1.207287136634393 -0 -0 -2.71745643818855 -0 -0 0 0 0 1:1 2:1 3:1 4:1 5:1 6:1 7:1 8:1 9:1 10:1 11:1 12:1 13:1 14:1 16:1 17:1 18:1 21:1 22:1 23:1 24:1 28:1 33:1 34:1 37:1 41:1 42:1 45:1 47:1 48:1 49:1 51:1 52:1 53:1 54:1 56:1 58:1 59:1 60:1 62:1 63:1 64:1 65:1 67:1 70:1 74:1 75:1 78:1 79:1 83:1 88:1 89:1 90:1 91:1 93:1 94:1 95:1 98:1 99:1 
-0.8300458335677846 -0 -0.4712452488197759 -0.4924242731707896 -0.1562667628999513 -0 -0.02985339249776594 -0.1595782351220104 -0.5442720446661516 -0 -0 -0.4683964034602431 -1.64462020666017 -0.4361004905113336 -0.4392882997235437 -0 -0 0 0 0 1:1 2:1 3:1 4:1 5:1 6:1 7:1 8:1 9:1 10:1 11:1 12:1 13:1 14:1 16:1 17:1 18:1 21:1 22:1 23:1 24:1 28:1 33:1 34:1 37:1 41:1 42:1 45:1 47:1 48:1 49:1 51:1 52:1 53:1 54:1 56:1 58:1 59:1 60:1 62:1 63:1 64:1 67:1 70:1 74:1 75:1 78:1 79:1 83:1 88:1 89:1 90:1 91:1 93:1 94:1 95:1 98:1 99:1 
-0.4674710251469407 -2.541939993877636 -0.4753653003031532 -0.5008022324236793 -0.3766286864442925 -1.981746041768478 -4 -1.790982802284689 -0.8270613851630669 -0.3053004090019942 -1.204124226837923 -1.611324989035872 -0.1991254198182635 -0.463713091855848 -2.522093091997574 -1.721797328312725 -0.5001084529859021 1.680415400882945 0.2313372603359762 1.604029539178947 1:1 2:1 3:1 4:1 5:1 6:1 7:1 8:1 9:1 10:1 11:1 12:1 13:1 14:1 16:1 17:1 18:1 21:1 22:1 23:1 24:1 28:1 33:1 34:1 37:1 41:1 42:1 45:1 47:1 48:1 49:1 51:1 52:1 53:1 54:1 56:1 58:1 59:1 60:1 62:1 63:1 64:1 65:1 67:1 70:1 74:1 75:1 78:1 79:1 83:1 88:1 89:1 90:1 91:1 93:1 94:1 
-0.4842559087799699 -1.22165560104847 -0.4895632781453579 -1.54593691445817 -1.587142320017425 -1.012353338742934 -0.4556611085616141 -2.102310175605135 -4 -1.782271449342452 -3.176213112791281 -0.4851501790348137 -1.1378355322413 -0.4995160025709494 -0.4782105945648863 -1.107023678569246 -2.053037544898388 1.125092677530927 3.871884519727569 1.032499542606448 1:1 2:1 3:1 4:1 5:1 6:1 7:1 8:1 9:1 10:1 11:1 12:1 13:1 14:1 16:1 17:1 18:1 21:1 22:1 23:1 24:1 28:1 33:1 34:1 37:1 41:1 42:1 45:1 47:1 48:1 49:1 51:1 52:1 53:1 54:1 56:1 58:1 59:1 60:1 62:1 63:1 64:1 65:1 67:1 70:1 74:1 75:1 78:1 79:1 83:1 88:1 89:1 90:1 91:1 93:1 94:1 95:1 98:1 99:1 100:1 101:1 102:1 103:1 104:1 105:1 106:1 107:1 108:1 109:1 110:1 
-0.06300885592833132 -0 -0 -0 -0 -0 -1.70972598000429 -0 -0.261374529967069 -0 -0 -0 -0 -0 -0 -0 -3.138366012944021 0 0 0 1:1 2:1 3:1 4:1 5:1 6:1 7:1 8:1 9:1 10:1 11:1 12:1 13:1 14:1 16:1 17:1 18:1 21:1 22:1 23:1 24:1 28:1 33:1 34:1 37:1 41:1 42:1 45:1 47:1 48:1 49:1 51:1 52:1 53:1 54:1 56:1 58:1 59:1 60:1 62:1 63:1 64:1 65:1 67:1 70:1 74:1 75:1 78:1 79:1 83:1 88:1 89:1 90:1 91:1 93:1 94:1 95:1 99:1 
-4 -0.2072112195871496 -1.434597697312256 -0 -1.609913895517793 -0.1721292426987619 -0 -0.7535159260300855 -0.6368452169394918 -1.357012885408957 -1.142221699594326 -0.2803995832276303 -0 -1.289681087448154 -0.5502698515992952 -0 -0 0.7917182429140088 2.396643454992143 0 1:1 2:1 3:1 4:1 5:1 6:1 7:1 8:1 9:1 10:1 11:1 12:1 13:1 14:1 16:1 17:1 18:1 22:1 23:1 24:1 28:1 33:1 34:1 37:1 41:1 42:1 45:1 47:1 48:1 49:1 51:1 52:1 53:1 54:1 58:1 59:1 60:1 62:1 63:1 64:1 65:1 67:1 70:1 74:1 75:1 78:1 79:1 83:1 88:1 89:1 90:1 91:1 93:1 94:1 95:1 98:1 99:1 
-1.358104567821398 -0.3515823656587498 -0.9584846753180044 -1.465320530560056 -1.050380762943066 -0.3352223311212995 -0.5076867955782354 -0.630173059950922 -0.3388531049155682 -0.9166668100860571 -0.822996499786656 -0.3764461219998084 -0.199125419818263 -0.8878930334821284 -0.4947569836689788 -0.8678553282590641 -0.04047646102410308 0.452856131349385 2.765076805867566 0.8333821727738561 1:1 2:1 3:1 4:1 5:1 6:1 7:1 8:1 10:1 11:1 12:1 13:1 14:1 16:1 17:1 18:1 22:1 23:1 24:1 28:1 33:1 34:1 37:1 41:1 42:1 45:1 47:1 48:1 49:1 51:1 52:1 53:1 54:1 56:1 58:1 59:1 60:1 62:1 63:1 64:1 65:1 67:1 74:1 75:1 78:1 79:1 83:1 88:1 89:1 90:1 91:1 93:1 94:1 95:1 98:1 99:1 
-0.6643875306768936 -2.570936515635794 -1.091278313892452 -0.06890851902015079 -0.6184715662793153 -1.411808725318881 -1.453386852314499 -0.903984788284387 -1.131503371578668 -1.178387062397463 -0.5983390861057306 -0.2948462343409039 -0.5169691603657686 -0.7242082957598651 -1.094472896941015 -0.3195895514171718 -1.031711829443603 -0.5467941804638875 0.522361430126801 0.3878315987396917 1:1 2:1 3:1 4:1 5:1 6:1 7:1 8:1 9:1 10:1 11:1 12:1 23:1 36:1 37:1 38:1 41:1 42:1 43:1 44:1 45:1 47:1 48:1 49:1 52:1 53:1 54:1 55:1 58:1 59:1 60:1 64:1 65:1 66:1 67:1 69:1 70:1 71:1 73:1 76:1 77:1 78:1 84:1 85:1 89:1 90:1 94:1 95:1 96:1 
-1.437146148237198 -2.308308160923663 -0 -0.4643668112779599 -0 -2.453901202069229 -0.6576648080770476 -0.6323873902670494 -1.144337648306657 -0 -2.298461403295529 -0.3378456011998615 -0 -0 -1.007035868990338 -2.209947956591556 -0.7296258974275226 -1.093217832461311 2.417214445460259 2.565792439988793 1:1 2:1 3:1 4:1 5:1 7:1 8:1 9:1 10:1 11:1 12:1 23:1 34:1 36:1 37:1 38:1 41:1 42:1 43:1 44:1 45:1 47:1 48:1 49:1 52:1 53:1 54:1 55:1 56:1 58:1 59:1 60:1 64:1 65:1 66:1 67:1 70:1 71:1 73:1 76:1 77:1 78:1 84:1 85:1 89:1 90:1 94:1 95:1 96:1 
-0.748533390804674 -0 -2.090104819608645 -1.434222718874073 -1.384571249793097 -0.1139899119496054 -0 -0 -0 -1.553383973612463 -0.4927040553325479 -0.8481358673170181 -0.5191923884654971 -1.530949432840704 -0 -0 -0 -0 0.348301551773557 0.1737762330972205 1:1 2:1 3:1 4:1 5:1 6:1 7:1 8:1 9:1 10:1 11:1 12:1 23:1 34:1 36:1 37:1 38:1 41:1 42:1 43:1 44:1 45:1 47:1 48:1 49:1 52:1 53:1 54:1 55:1 56:1 58:1 59:1 60:1 64:1 65:1 66:1 67:1 70:1 71:1 73:1 76:1 77:1 78:1 84:1 85:1 89:1 90:1 94:1 95:1 96:1 97:1 
-0.05658392444529375 -2.06629323783928 -0.2785772536420392 -0.2230841185611548 -2.607781071432359 -0.4521422054849689 -0.4821292850413065 -0.573533918079512 -1.057077635410233 -3.597873439459273 -1.272708842461546 -0.4775139028413756 -0.1747150451732337 -0.1787307238742017 -0.3222989980722484 -1.232392141495796 -1.650042355568034 -1.001400531816238 1.500144521963692 0.7297741367998005 1:1 2:1 3:1 4:1 5:1 6:1 7:1 8:1 9:1 10:1 11:1 12:1 23:1 34:1 36:1 37:1 38:1 41:1 42:1 43:1 44:1 45:1 47:1 48:1 49:1 52:1 53:1 54:1 55:1 56:1 58:1 59:1 60:1 64:1 65:1 66:1 67:1 69:1 70:1 71:1 73:1 76:1 77:1 78:1 84:1 85:1 89:1 90:1 94:1 95:1 96:1 97:1 100:1 101:1 102:1 103:1 104:1 105:1 106:1 107:1 108:1 109:1 110:1 
-0.298292022018556 -0.5434255934578927 -0.2826109500795678 -0 -0.310959134449778 -0 -1.43991615403228 -0.5478380394475646 -1.212633155290033 -1.093195743287377 -0.3114153081284703 -1.891701284911733 -0.03070081155591995 -0.29377510572869 -1.539094623131519 -0.1908974577958196 -1.166953208594276 -1.283172859232393 0.2378800294279008 0 1:1 2:1 4:1 5:1 6:1 7:1 8:1 9:1 10:1 11:1 12:1 23:1 34:1 36:1 37:1 38:1 41:1 42:1 44:1 45:1 47:1 48:1 49:1 52:1 53:1 54:1 55:1 56:1 58:1 59:1 60:1 64:1 65:1 66:1 67:1 70:1 71:1 73:1 76:1 77:1 78:1 84:1 85:1 89:1 90:1 94:1 95:1 96:1 97:1 
-0.394385692497688 -0.8120140934898891 -0.3783416311453531 -1.241548168747956 -0.427361039003896 -2.221976778239578 -0.0479198803692502 -1.206999973077084 -0.1899765458322574 -0.7140587820139928 -0.4152659472424898 -0 -1.040514623700615 -0.3918850937132625 -0.02516886895103043 -0.4489790758692671 -0.1391821822785985 -0.1254970487034346 0.5706419992011968 1.99603505694882 1:1 2:1 5:1 6:1 7:1 8:1 9:1 10:1 11:1 12:1 23:1 34:1 36:1 37:1 38:1 41:1 42:1 43:1 44:1 45:1 47:1 48:1 52:1 53:1 54:1 55:1 56:1 58:1 59:1 60:1 64:1 65:1 66:1 67:1 69:1 70:1 71:1 73:1 76:1 77:1 78:1 84:1 85:1 89:1 90:1 94:1 95:1 96:1 97:1 100:1 101:1 102:1 103:1 104:1 105:1 106:1 107:1 108:1 109:1 110:1 
-0 -0 -2.36872473453153 -0 -0.8421846378921911 -0 -0.1868068062862023 -0 -0 -2.634648305316512 -0 -0 -0.5454102523100368 -1.242482053016335 -0 -0 -0 -0 0 0 1:1 2:1 3:1 4:1 5:1 7:1 8:1 9:1 10:1 11:1 12:1 23:1 34:1 36:1 37:1 38:1 41:1 42:1 43:1 44:1 45:1 47:1 48:1 49:1 52:1 53:1 54:1 55:1 56:1 58:1 59:1 60:1 64:1 65:1 66:1 67:1 69:1 70:1 71:1 73:1 76:1 77:1 78:1 84:1 85:1 89:1 90:1 94:1 95:1 96:1 97:1 
-0.9967031456686642 -0.2764767530553807 -0.509682452675724 -0 -0.6899987377709869 -0 -0.4573761884195999 -0.1882481970347269 -0.5450217018116658 -0.494238022381752 -0.3776352426344456 -0.4864808783773363 -0.4889115212763229 -0.4972897574546783 -0.4723308202721936 -0 -0.4996103300951978 -0.5226331871020604 -0.6056346313711879 0 1:1 2:1 3:1 5:1 6:1 7:1 8:1 9:1 10:1 11:1 12:1 23:1 34:1 36:1 37:1 38:1 40:1 41:1 42:1 43:1 47:1 48:1 49:1 51:1 52:1 53:1 54:1 56:1 58:1 59:1 60:1 62:1 63:1 64:1 65:1 67:1 70:1 74:1 75:1 78:1 79:1 83:1 88:1 89:1 90:1 91:1 93:1 94:1 95:1 98:1 99:1 
-1.513639996224581 -0 -0.5338650082128019 -1.389995397064952 -0.8759540170658421 -0 -0.4284807920854521 -0 -0.5283645665428155 -0.4769744393435393 -2.00698614585096 -0.4726653945871819 -0.4785581662750441 -0.482291853045993 -1.266685362759234 -0.8069327775710555 -0.4992024214791514 -2.952231188731948 -0.2707249669787575 1.63555177043769 1:1 2:1 3:1 4:1 5:1 6:1 7:1 8:1 9:1 10:1 11:1 12:1 23:1 34:1 36:1 37:1 38:1 40:1 41:1 42:1 43:1 45:1 47:1 48:1 49:1 51:1 52:1 53:1 54:1 56:1 58:1 59:1 60:1 62:1 63:1 64:1 65:1 67:1 74:1 75:1 78:1 79:1 83:1 88:1 89:1 90:1 91:1 93:1 94:1 95:1 98:1 99:1 
-0 -0.09574315480863041 -0 -0.03073855948939766 -0.7327541974153298 -0.07950849782266878 -0.02770045775771204 -0 -0.7423672247957779 -0.4751692272985307 -4 -0.004729606423202984 -0.007248226379749058 -0.01465971455949733 -0 -0.08223392766596659 -0 -0 -0 0 1:1 2:1 3:1 4:1 5:1 6:1 7:1 8:1 9:1 10:1 11:1 12:1 23:1 34:1 36:1 37:1 38:1 40:1 41:1 42:1 43:1 45:1 47:1 48:1 49:1 51:1 52:1 53:1 54:1 56:1 58:1 59:1 60:1 62:1 63:1 64:1 65:1 67:1 70:1 74:1 75:1 78:1 79:1 83:1 88:1 89:1 90:1 91:1 93:1 94:1 95:1 98:1 99:1 100:1 101:1 102:1 103:1 104:1 105:1 106:1 107:1 108:1 109:1 110:1 
-0.5894914339061897 -3.173613144172939 -0.5060921650276671 -1.24841762948817 -1.623723984812929 -1.340680281809899 -0.4729486115494817 -3.52177226722968 -4 -2.732994903349023 -3.879928891266327 -0.4997447323934495 -1.213048212947899 -0.4982903756287994 -0.5015570448613008 -1.056577798712726 -2.229626582967051 -3.955195640276752 -2.150414198914991 1.698427006658466 1:1 2:1 3:1 4:1 5:1 6:1 7:1 8:1 9:1 10:1 11:1 12:1 23:1 34:1 36:1 37:1 38:1 40:1 41:1 42:1 43:1 45:1 47:1 48:1 49:1 51:1 52:1 53:1 54:1 56:1 58:1 59:1 60:1 62:1 63:1 64:1 65:1 67:1 70:1 74:1 75:1 78:1 79:1 83:1 88:1 89:1 90:1 91:1 93:1 94:1 95:1 98:1 99:1 100:1 101:1 102:1 103:1 104:1 105:1 106:1 107:1 108:1 109:1 110:1 
-4 -0 -4 -0 -4 -0 -1.668799943868069 -0 -3.044225522842311 -2.552063564114232 -0 -1.817702948537365 -0.1312842532920189 -1.956179281037728 -0.3963815863474384 -0 -1.418228788328174 -1.214603382914651 -0 0 1:1 2:1 3:1 4:1 5:1 6:1 7:1 8:1 9:1 10:1 11:1 12:1 23:1 34:1 36:1 37:1 38:1 40:1 41:1 42:1 43:1 45:1 47:1 48:1 49:1 51:1 52:1 53:1 54:1 56:1 58:1 59:1 60:1 62:1 63:1 64:1 65:1 67:1 70:1 74:1 75:1 78:1 79:1 83:1 88:1 89:1 90:1 91:1 93:1 94:1 95:1 98:1 99:1 
-1.005085030486035 -2.758493937112312 -0.5106615417836442 -1.053293444105407 -0.6850460611282413 -2.932075337174975 -2.954590967375256 -2.730263852615494 -1.009543903470244 -0.4889697411745971 -4 -0.476525590216351 -0.4920639023832712 -0.471938389053878 -2.552218706265542 -2.127301028227692 -0.4996534696587847 -0.6202786418978418 -2.569770180688471 1.079861335285302 1:1 2:1 3:1 4:1 5:1 6:1 7:1 8:1 9:1 10:1 11:1 12:1 23:1 34:1 36:1 37:1 38:1 40:1 41:1 42:1 43:1 45:1 47:1 48:1 49:1 51:1 52:1 53:1 54:1 56:1 58:1 59:1 60:1 62:1 63:1 64:1 65:1 67:1 70:1 75:1 78:1 79:1 83:1 88:1 89:1 90:1 91:1 93:1 94:1 98:1 99:1 
-0.6451035824726509 -3.791184845737567 -0.7072208314734152 -1.570459925000464 -1.357111957455884 -4 -0.4847158237532563 -1.29110695987528 -0.9963906730118008 -1.6954023432397 -1.020754008631046 -0.7705984002794322 -1.054510601291413 -0.6684613413830363 -0.6845146360722195 -1.645621478690802 -0.4841521992746082 -1.236194331673365 -2.9441177284151 -1.543325008205454 1:1 2:1 3:1 4:1 5:1 6:1 7:1 8:1 9:1 10:1 11:1 12:1 34:1 35:1 38:1 39:1 40:1 41:1 42:1 43:1 44:1 45:1 46:1 47:1 52:1 53:1 54:1 55:1 56:1 57:1 58:1 64:1 65:1 66:1 67:1 68:1 71:1 73:1 74:1 75:1 76:1 77:1 78:1 89:1 100:1 101:1 102:1 103:1 104:1 105:1 106:1 107:1 108:1 109:1 110:1 
-0.4672531899305737 -0.9604559509482951 -0.4321341318179495 -0.4922771104576592 -0.47013513842198 -4 -0.4796832150963898 -0.4449585731812812 -0.5385704259680063 -0.4841969628444813 -0.4777163820839662 -0.4332201896351263 -0.489112707555191 -0.4570335769746694 -0.4516639339335456 -0.4841560902119347 -0.48806008052148 -0.4946207484552885 -0.5075747085676331 -0.4746374728373224 1:1 2:1 3:1 4:1 5:1 6:1 7:1 8:1 9:1 10:1 11:1 12:1 23:1 34:1 35:1 38:1 39:1 40:1 41:1 42:1 43:1 44:1 45:1 46:1 47:1 52:1 53:1 54:1 55:1 56:1 57:1 58:1 63:1 64:1 65:1 66:1 67:1 68:1 71:1 72:1 73:1 74:1 75:1 76:1 77:1 89:1 
-1.169558130001781 -1.066685490260596 -0.4691879795401074 -0.7807984154141789 -1.369843438240354 -1.295966271195221 -1.498740386956239 -1.276402304458933 -1.521122023441457 -0.6120769439219127 -1.884533388761726 -1.112243782005488 -1.062206898370949 -0.789240487496359 -1.342178201125942 -0.4974326268554767 -1.345655380222715 -1.26715472270236 -0.5114785901154824 -1.55712297285544 1:1 2:1 3:1 4:1 5:1 6:1 8:1 9:1 11:1 12:1 23:1 34:1 35:1 38:1 39:1 40:1 41:1 42:1 43:1 45:1 46:1 47:1 52:1 53:1 54:1 55:1 56:1 57:1 58:1 63:1 64:1 65:1 66:1 67:1 68:1 71:1 72:1 73:1 74:1 75:1 76:1 77:1 78:1 89:1 
-0 -0 -0 -0 -0.01464433232156764 -0.268683480333364 -0.03014188901627032 -0.03085436067315945 -0.03208815259595589 -0.03044333656167176 -0.02463497752862956 -0 -0.02248566024214139 -0 -0 -0.2817417898716171 -0 -0.00809184952838249 -0 -0.04525715904424517 1:1 2:1 3:1 4:1 5:1 6:1 7:1 8:1 9:1 10:1 11:1 12:1 23:1 34:1 35:1 38:1 39:1 40:1 41:1 42:1 43:1 44:1 45:1 46:1 47:1 52:1 53:1 54:1 55:1 56:1 57:1 58:1 63:1 64:1 65:1 66:1 67:1 68:1 71:1 72:1 73:1 74:1 75:1 76:1 77:1 78:1 89:1 100:1 101:1 102:1 103:1 104:1 105:1 106:1 108:1 109:1 110:1 
-0 -0 -0 -0 -0.1995341911942975 -0.2329274600673255 -0 -0.04152914276316876 -0.1789643397636693 -0.02982306319343815 -0.1048224747103675 -0 -0.08300730453636859 -0 -0 -0 -0 -0 -0 -0.2327366380572068 1:1 2:1 3:1 4:1 5:1 6:1 7:1 8:1 9:1 10:1 11:1 12:1 23:1 34:1 35:1 38:1 39:1 40:1 41:1 42:1 43:1 44:1 45:1 46:1 47:1 52:1 53:1 54:1 55:1 56:1 57:1 58:1 63:1 64:1 65:1 66:1 67:1 68:1 71:1 72:1 73:1 74:1 75:1 76:1 77:1 78:1 89:1 100:1 101:1 102:1 103:1 104:1 105:1 106:1 107:1 108:1 109:1 110:1 
-0.8494768916656694 -4 -2.328123775247836 -0.4923851441595123 -0.3867155988540918 -4 -1.596428061970425 -0 -0.6672235958245457 -1.428422856330847 -0.8996510238316771 -0.6504204355704781 -0.02777837608451931 -1.39774128465236 -1.175201349453097 -2.286326253325408 -0.1982982902878174 -0.4638496021998562 -1.89003843847611 -0.5607608613817888 1:1 2:1 3:1 4:1 5:1 6:1 7:1 8:1 9:1 10:1 11:1 12:1 23:1 34:1 35:1 38:1 39:1 40:1 41:1 42:1 43:1 44:1 45:1 46:1 47:1 52:1 53:1 54:1 55:1 56:1 57:1 58:1 63:1 64:1 65:1 66:1 67:1 68:1 71:1 72:1 73:1 74:1 75:1 76:1 77:1 78:1 89:1 
-0 -1.682632426157603 -0 -0 -0 -0 -0 -0.48949700562885 -0.2783628039818536 -0.571791555193666 -0.9788073089677422 -0 -0.1168858499023849 -0 -0 -0 -1.20572556011085 -0 -0 -0 1:1 2:1 3:1 4:1 5:1 6:1 7:1 8:1 9:1 10:1 11:1 12:1 23:1 34:1 35:1 38:1 39:1 40:1 41:1 42:1 43:1 44:1 45:1 46:1 47:1 52:1 53:1 54:1 55:1 56:1 57:1 58:1 63:1 64:1 65:1 66:1 67:1 68:1 71:1 72:1 73:1 74:1 75:1 76:1 77:1 78:1 89:1 100:1 101:1 102:1 103:1 104:1 105:1 106:1 107:1 108:1 109:1 110:1 
